642 128
2 0.13216236 0.059663452 0.1463487 0.09911282 -0.06873764 -0.30554187 0.08261842 -0.020210376 0.2038905 0.08897553 0.115931146 -0.091610156 -0.18865132 -0.06596533 0.069985345 0.36603087 -0.12938823 0.22015797 -0.16737567 -0.09960091 0.13053861 0.18244618 -0.39607492 0.07162369 0.2592605 -0.07712683 -0.19416492 0.2533478 -0.11461215 -0.12606229 -0.08746122 0.02955541 0.31488743 -0.07705671 -0.055852257 0.054839864 0.16438256 -0.18986174 0.1015607 0.10367916 -0.048848476 0.18414716 -0.1875892 -0.15166283 -0.023548005 -0.079380654 -0.4442674 -0.08007822 0.21499623 -0.030607807 0.16128261 0.07912595 -0.027932407 -0.06387595 -0.17364334 -0.2545971 0.32504177 -0.00033639531 -0.14311607 0.084595345 -0.037407868 0.20332456 0.08359187 0.17491278 0.019288784 -0.019883202 -0.08038337 0.2859861 0.067034975 0.09685248 0.25490922 -0.17016363 0.15470625 -0.06278045 -0.08378922 0.063123494 0.09004924 -0.19033533 -0.07812347 0.048555773 -0.0936037 0.09982378 0.035019137 0.04052881 0.057650376 0.038823843 0.13485372 -0.08450247 0.006126009 0.06253155 -0.20081025 -0.11161359 -0.108395495 0.08378895 0.20010544 0.16035186 -0.18508458 -0.04412791 0.0756105 0.11606363 -0.11813308 -0.11389271 -0.10644431 0.07534763 0.09163899 -0.099396594 -0.17455232 -0.03647719 0.45332798 -0.16743653 -0.040324103 0.017580045 -0.17577311 0.03644753 0.28665623 0.19329803 0.055517584 0.1080723 -0.16183344 -0.037283007 -0.13718021 -0.08802733 -0.110121086 -0.30035797 -0.19150001 -0.013801608 -0.14552876 0.1298251
1 -0.22426002 0.052301783 0.022331508 -0.038391165 -0.15252368 -0.20745042 0.04223512 0.09116367 -0.0043546045 0.124993 0.37735415 0.1384734 -0.29150805 -0.010132978 0.04133561 0.27900442 -0.073451996 0.15893482 -0.11275854 -0.21800241 0.08277439 0.2851759 -0.23271784 -0.07525516 0.049356535 0.22766459 -0.15917812 0.28918928 -0.0023958636 0.01789195 -0.34945244 0.15012813 0.018538374 -0.0718534 0.12988184 0.14429946 -0.040205773 -0.28971565 0.16702257 0.032295648 0.0998424 0.23283918 -0.023319716 -0.028905166 -0.021624554 0.06529818 -0.41562515 -0.14697479 0.15736172 -0.010942933 0.07328833 0.054057095 -0.16176136 -0.11648434 -0.3663705 0.06849462 0.44388413 0.22190411 -0.18242179 -0.019250818 0.060011618 -0.0064406516 -0.0058076954 0.24124227 0.08079272 0.20276529 -0.035539456 0.21891934 -0.11729509 0.13362126 0.06693621 -0.11649778 -0.28835875 0.095956944 -0.07210891 -0.12798028 0.11706061 0.003846969 -0.09797141 -0.19800249 -0.21724337 0.1837971 -0.091778815 0.008246414 -0.12339667 0.17678058 0.22652969 -0.1538183 0.2822467 0.060627747 -0.24444303 -0.28820747 -0.07717641 0.15518418 0.27445295 -0.002659879 0.10180432 -0.24849217 0.10084876 0.18588401 -0.12583145 -0.017694453 -0.16296746 -0.42341143 0.11961223 -0.014538301 -0.14746028 0.14269099 0.18652491 -0.1470538 -0.04804006 -0.2407938 -0.053364888 0.04337957 0.2550045 0.07478944 -0.12009769 0.05148335 -0.06805271 -0.08441771 -0.27479702 0.13245343 -0.010271345 -0.039248593 -0.0934729 -0.18564242 -0.017867869 -0.09359871
25 -0.20163314 -0.6213543 -0.11254276 0.026939932 0.06404931 -0.32792705 -0.27491364 -0.30187002 -0.2563822 -0.06548145 0.30094147 0.31947866 -0.075166196 0.08344629 0.275108 0.19026046 0.07869801 -0.068488814 -0.1647026 0.10051074 0.3588771 0.51456237 0.051874228 -0.30395734 -0.10124556 -0.045145392 -0.09292792 0.07257939 -0.06459116 -0.15089263 0.0043571754 -0.119186856 0.17152373 -0.15523393 -0.07924099 -0.05963915 0.3128416 -0.06967893 0.15376931 -0.14685492 -0.0430836 0.356569 -0.14740577 -0.33479273 0.074403174 0.04301976 -0.23350838 -0.188427 0.13515377 -0.14699943 0.18608975 -0.03269588 0.014686934 -0.4305427 -0.10666511 -0.0044947234 0.23484135 -0.03000636 0.0059828917 0.20113334 0.27175513 0.031193608 0.05689685 0.064556904 0.027912129 0.08861493 0.3964647 0.43368527 -0.0738266 0.11199546 0.11128492 -0.27979138 -0.07868825 0.039088104 0.021822233 -0.15420535 -0.108600795 -0.2280912 -0.036461964 0.2635544 0.14413624 -0.31431612 -0.1923098 0.25536406 0.047900353 -0.09208688 0.09480528 -0.14129098 0.2019424 0.09241236 -0.17788965 -0.1860375 0.1370965 0.16493358 0.17776124 -0.19737591 -0.21226759 -0.38892058 -0.08514088 0.082161024 -0.06758623 0.20403256 0.06720825 -0.2026887 0.062653944 -0.39965796 0.26845333 -0.11756776 0.028692449 0.050003063 -0.07492292 -0.123764016 -0.051035542 -0.10809854 -0.09854562 0.13076364 -0.20906697 0.09616771 -0.23235862 0.06489995 -0.12292469 0.35798076 -0.07139676 0.29938293 0.02825188 0.13040523 0.06713775 -0.067480065
3 -0.097343035 -0.32881424 0.28889757 0.2856382 -0.20764083 -0.18943298 -0.3946032 -0.17065942 0.039319925 0.052604146 0.16241479 -0.13100955 -0.120550044 0.008545313 0.08102272 0.020616487 -0.037241727 0.060189802 -0.35185772 -0.1418812 -0.051369287 0.52766806 -0.06663012 -0.20066519 0.24928123 0.509326 -0.12776092 -0.0036224301 0.0011575981 0.06276238 -0.30394933 0.06665185 -0.05564191 0.09809045 0.13233897 0.14816628 -0.09603895 -0.21818241 0.13590062 0.036735583 -0.018280536 0.1374168 0.26762453 0.070310645 -0.04445289 0.19503441 0.119310506 0.02394981 0.1320941 0.12100676 0.23811673 -0.18700717 0.20526223 0.052140802 -0.48447058 0.16353723 0.2493692 0.11826029 -0.11057504 -0.04752083 0.26984608 0.18795323 0.024115397 0.43439963 0.38520044 0.020565802 0.0010670561 0.064915486 0.14445008 -0.17170456 -0.20218843 -0.009797337 -0.24829894 -0.0015711476 0.41833928 0.23440903 0.018453315 0.042139076 0.11748877 -0.10032377 -0.26943606 -0.3219987 0.24144241 0.08125887 0.23721209 0.05121371 0.03492904 0.056103572 -0.16047831 0.21344288 0.27897376 0.15047792 0.05351698 0.3901663 0.38405126 -0.3087113 -0.1945918 -0.059253436 -0.0032175558 -0.14658642 -0.1277159 -0.3611283 -0.020886412 -0.11173153 -0.09076614 -0.08886754 -0.09889937 -0.19005388 0.15839022 -0.25323346 -0.2193876 -0.26568297 0.11326606 0.13167687 -0.27391 0.21481352 0.1299378 0.3881399 0.098578475 -0.31890962 -0.19665228 -0.022277355 0.012867475 -0.17439145 -0.20634492 -0.3771524 0.22338468 -0.08094353
28 -0.26410934 -0.59005624 -0.026330912 -0.11462772 -0.100673325 -0.16566743 -0.08118266 -0.13512841 0.1726495 0.03932062 0.22978963 -0.03583768 -0.25692013 -0.21647424 0.1746016 0.13234815 0.14904661 -0.13510537 -0.13263829 -0.30768996 -0.2080914 0.30210745 -0.08286657 -0.043316927 -0.25074992 0.2370363 -0.0029711246 0.00025547566 0.13226917 0.015269481 -0.018338233 0.09983252 -0.021240307 -0.009813329 -0.06001382 0.15136708 0.25210255 -0.29047567 0.116704606 -0.022038493 0.10257381 0.18380846 -0.29660985 0.2630574 0.37138727 -0.367162 -0.20459673 -0.25275856 0.16061676 0.37980765 0.31493267 -0.29493818 -0.20035681 0.083858065 -0.07219704 -0.12946796 0.17327778 -0.42040503 0.25282928 0.20569354 0.056780152 0.017586181 0.2597811 0.25832802 -0.13860425 -0.041075006 0.081592984 0.24013563 0.29378918 -0.09047412 0.42707288 -0.29383028 -0.28916612 -0.22451474 0.14074951 0.1677603 0.024572212 0.10400007 -0.023119355 0.24147058 -0.31003052 -0.13983174 0.34690303 -0.015686395 0.041705 -0.05672826 0.12025277 -0.043953095 0.21550015 0.15842743 -0.06300919 0.03958852 -0.086305864 0.3410196 -0.23520444 0.35861993 0.20987725 -0.013788692 0.10120005 -0.06315596 -0.29377836 0.16496399 -0.33378056 0.01761249 0.124626905 0.04379876 0.0498501 -0.20501067 -0.032320898 0.020842064 -0.08858777 -0.22487 0.12249309 0.18824466 -0.040713124 0.009371478 0.39923587 0.24068776 0.22349483 0.22016263 0.029882224 -0.03515574 0.23761338 -0.037772354 -0.050124045 -0.027305115 -0.12712717 0.011497297
22 0.009102948 -0.2052375 -0.035851464 0.24024348 -0.14909407 -0.1283093 0.08485852 -0.06264636 -0.13704166 0.13323253 0.08901891 -0.17850572 -0.17929356 0.38848844 -0.23564434 -0.0019821064 0.24396616 -0.1551842 0.117410325 -0.1374423 -0.0050944462 0.0527527 -0.099476956 0.06913582 0.07998553 0.102193505 -0.2387519 -0.04947736 -0.22209518 -0.38829774 -0.028947148 0.501399 0.07582597 0.22703287 0.16038536 -0.092124954 0.15421684 0.22115523 -0.053230863 -0.11183386 0.18500718 0.26104176 -0.273252 -0.19490376 0.111529835 -0.25701383 0.054639816 -0.29498902 0.084289715 -0.14473015 0.22236678 0.16080803 0.1600348 0.0028285943 -0.2304557 0.1682842 0.1821215 -0.33611688 -0.10679518 0.41142356 0.18050982 0.10537647 0.22183523 0.11215607 0.34095728 -0.22937137 -0.11990181 0.28581032 0.0094778985 -0.22877719 -0.096642196 -0.25771657 -0.5764975 -0.18232872 -0.3078592 -0.13301125 0.07574257 0.22547401 0.17557453 -0.091454685 0.32128397 0.009387689 0.22258908 0.10173648 -0.17233954 0.07676184 -0.20615275 -0.2810932 0.08287159 0.58360994 -0.11448704 0.017963791 0.23328696 0.20158473 0.18324563 0.11685185 -0.09942146 -0.019910363 -0.23265244 -0.10953771 -0.05059961 -0.15177508 -0.32389057 0.028310446 -0.3021311 -0.56681895 -0.29038095 -0.046102915 0.37637085 -0.106981866 -0.20507915 -0.37780717 0.27328357 0.15237533 -0.26195326 0.3384497 -0.22059435 0.17411721 -0.068797834 0.17017572 0.23565452 0.0143915545 -0.20403096 0.14295246 0.05933829 -0.0939266 -0.48239154 -0.0067252666
23 0.2227739 -0.22714901 0.36515677 0.39152762 -0.070728004 -0.2766334 -0.3377785 -0.12816238 0.17862704 -0.11714953 0.23719385 -0.24249211 -0.40101984 -0.09785655 -0.0956246 0.18390825 0.057531763 0.012600591 0.14628023 0.26277903 0.26222312 -0.13507354 -0.117496826 -0.17502536 -0.25944105 0.18038785 -0.22162786 0.26352757 -0.23169361 -0.10287148 -0.2906625 -0.09803682 -0.33650908 0.20511538 0.04590471 0.15027763 0.2910635 0.058719415 0.2980252 0.27503422 0.12670748 0.1907196 0.3483472 0.15576077 0.24903238 -0.08892881 0.021345226 -0.47676575 0.026787605 0.14467007 0.023722788 -0.19401458 -0.00986632 0.16486318 0.04762921 -0.24440314 0.3357994 -0.19564213 -0.10778711 0.4044075 -0.38007814 0.097735584 0.11908631 -0.06424556 0.15007028 0.27304387 0.11996433 0.13745405 0.043783803 0.04440645 0.30795458 -0.22369789 -0.25189376 -0.02803919 0.24894607 0.13157006 -0.33676898 -0.07749538 -0.12172055 0.1761816 0.070736594 -0.22018428 -0.18600516 0.15251248 -0.17756924 0.29334274 0.11945235 -0.4907583 0.29249856 0.17102075 -0.070865355 0.16886133 -0.22601356 0.016320042 0.103274904 -0.19358242 -0.36749768 -0.15682942 -0.25976107 -0.31859422 -0.07893241 -0.084457345 -0.18678011 0.28328755 -0.040029615 -0.106106706 -0.1767226 0.02324599 -0.07303246 -0.19294024 -0.1663179 -0.12617588 0.020180382 -0.2344893 0.26226845 0.13225555 -0.041783303 -0.03714731 0.2815705 -0.17845945 -0.068702325 0.1706427 -0.048194733 0.16286486 0.33357084 -0.11510395 0.3916336 0.45679075
37 0.017550806 -0.16922604 0.36817586 -0.1816948 -0.22690976 -0.11049625 0.23414972 0.03356912 0.08890391 -0.008597754 0.18001515 0.18122043 -0.33558723 -0.1937789 0.05873261 0.13411391 0.0060195657 -0.027888035 -0.22305976 0.06676217 0.45172077 0.02943711 -0.34012464 -0.15624787 0.13599023 0.07452721 -0.18542069 -0.0043647517 0.12564819 -0.25852796 -0.22355273 0.09891334 -0.3503593 -0.16823328 0.04362385 0.09035663 0.31822604 0.018738301 -0.2170752 -0.05170554 -0.2074549 0.058409244 -0.060255475 -0.05325648 0.42212218 -0.09051357 -0.1986542 -0.11920967 0.33925632 0.13473038 0.3026506 0.049146224 0.04667042 0.08193738 -0.14163627 0.06463579 0.05704764 0.049149964 -0.083686665 -0.22164898 -0.018373528 -0.23842454 0.37708735 -0.32307318 0.21687834 0.045449458 0.44813114 0.07472248 0.039109286 -0.24982281 0.43736252 -0.12270846 -0.46071497 -0.3085515 0.036856264 -0.2796783 -0.23937945 0.09399425 0.0931904 -0.16047691 0.3141675 -0.31026003 0.0866943 0.37764516 0.31125817 0.39408025 0.10832125 -0.054567825 0.1669134 0.0143700335 0.00012894871 -0.0039009661 0.21358183 0.38746446 0.10802686 -0.16267207 -0.16124886 -0.025834933 -0.073732436 -0.46007732 -0.095390365 -0.07464295 -0.030326473 -0.10640923 0.07542928 -0.18750611 0.03770082 -0.30427682 0.28262338 -0.1572045 -0.13638057 -0.13692386 0.12836713 0.07722035 -0.21326953 -0.0017540172 0.0693187 0.09303366 0.14123853 0.7152871 0.25919 0.2848112 -0.21982962 -0.05482415 -0.23885334 -0.13355388 -0.028241552 -0.21611324
40 -0.031955294 0.09707409 -0.25560662 0.23427543 0.027950458 0.026911026 -0.010007843 -0.33434433 0.3102563 0.10055694 0.1719708 0.21986648 -0.41322568 -0.062507845 0.13622898 -0.037008148 -0.24936783 0.17331588 0.12708007 0.11999109 0.047807254 0.2430227 -0.19149436 0.0017305225 -0.056329127 0.37364355 -0.054230165 -0.317626 -0.011850393 -0.056418024 0.038062036 -0.15087754 -0.16086045 0.2361398 0.015628237 0.3238496 0.13065062 0.21440297 0.2644031 0.11024638 -0.20609452 0.240939 0.033463366 -0.13149124 0.13941067 0.2813709 -0.03660234 -0.22961578 -0.10770279 0.5517839 0.34095284 0.04076924 -0.0007111668 -0.5426567 0.013407018 0.18263923 0.73358107 -0.5753956 0.092909016 0.29458773 -0.20734519 0.100932926 0.07574862 0.14427668 0.1631366 -0.13026983 0.37752417 0.07070366 -0.21359116 -0.37426004 0.06443279 0.037249103 0.16879809 0.105615914 0.09204359 0.029900651 0.078211196 -0.016443651 0.10498282 0.017576117 0.14420371 -0.2653645 0.00018850395 0.38080633 0.3128709 0.14958575 0.24211612 0.042232182 0.17662813 -0.065512076 -0.099078625 -0.11948048 -0.16682251 -0.40258053 -0.21461456 -0.15353023 -0.1596887 -0.18606651 -0.08414503 -0.15715507 -0.2514357 -0.57486 -0.056442246 0.11171367 0.0457143 -0.12038225 -0.11506734 -0.2853123 0.16651292 -0.15598068 0.016460633 -0.12299917 0.13464125 0.27551574 -0.12047418 0.04502123 -0.22395942 -0.073665835 0.1648134 0.067584015 0.18113016 -0.1185424 0.008537718 -0.17025466 -0.15152311 -0.007260135 -0.13244069 -0.07858791
38 0.4536968 -0.10719079 -0.25193518 -0.062000964 -0.038997337 -0.13926849 0.0036313205 -0.09912196 0.122777954 0.1169408 0.25332382 -0.05584516 -0.18236741 0.28931975 0.33731642 0.27021518 -0.18368174 0.04688981 -0.026005233 0.23345366 0.07031931 0.18649611 -0.33837944 -0.05917871 -0.2597583 0.04274381 -0.089548275 0.2541704 -0.19759227 0.0015947517 -0.17053479 -0.13844974 -0.0811854 0.16734892 0.052166477 -0.4156186 0.10375754 0.018723764 0.070808224 -0.05158201 -0.1560488 0.27338713 0.10288703 -0.022380099 0.003810949 -0.14046018 -0.3463484 -0.097902074 -0.14691214 0.24108917 0.22803743 -0.38785762 0.0472684 0.007498157 -0.40191403 -0.018430043 0.2995107 0.09214416 0.11754582 0.17579888 -0.058476876 -0.09460138 -0.012935131 -0.15469071 0.44264373 0.0154680535 -0.0102679655 -0.087419294 0.23449494 -0.22239254 0.18699422 -0.030267987 -0.19813533 0.24969566 -0.21605407 0.47772896 0.030671727 -0.124366865 -0.29870158 0.27131653 0.28179696 -0.11294087 -0.15757029 -0.14497985 0.15790989 -0.08331308 0.21507849 -0.31091404 0.1447223 0.11374379 -0.110964224 -0.1958545 -0.11017182 0.01265902 0.16186647 0.39201692 -0.4269722 -0.09391641 0.48479494 -0.14370364 -0.47846943 -0.20728064 -0.2625021 0.097207434 -0.12953569 0.1121935 0.15270014 0.16840832 -0.33502796 -0.21567607 0.131756 -0.40964746 0.32609925 -0.10784791 -0.31431633 0.12156626 -0.14121012 -0.047559675 0.15359713 0.19739574 0.062809944 0.19370101 -0.04465309 0.031158034 0.16043948 -0.2808797 -0.35794228 -0.37006506
187 0.04720927 -0.087446705 0.02900301 0.3850384 0.07149503 -0.13542742 0.19552626 -0.08467192 -0.39523423 0.0590095 0.28332356 0.033128083 0.09733115 0.05534231 0.20749277 0.07675399 0.18309931 0.08696507 0.23998299 0.16691993 -0.19823094 0.39428508 -0.15720972 0.058894206 -0.13814954 0.046889722 -0.30918068 0.04110688 -0.24000292 0.016242998 -0.2603639 0.07504736 -0.025989393 -0.021091316 0.18546379 0.28166392 0.41269177 0.021891499 -0.089742176 -0.08868104 0.06291386 0.14199764 0.05423999 0.13375542 0.20507929 0.2584414 -0.23857431 -0.5246267 0.23967 0.060631424 0.42737556 0.31833783 -0.039336964 -0.24016401 0.09806063 0.11024476 -0.057908736 -0.06456971 0.33554995 0.14483806 -0.30330297 0.33890516 0.083840385 0.16890326 0.51562303 -0.47714964 0.15561104 -0.0909882 -0.07707499 -0.14001027 0.09290758 -0.26500428 -0.33269465 0.16171227 0.23034601 0.4287928 0.21653062 0.21656229 -0.3350685 0.13543104 -0.17692672 -0.3088182 -0.22941966 0.1833869 0.12040999 0.039194103 0.23216932 -0.08804843 0.17752306 -0.038689114 0.06539748 0.084343016 -0.16341358 -0.4491366 0.5660849 0.21722336 -0.30514959 0.18853949 0.23084046 -0.120938614 -0.11352654 -0.37933594 -0.16751212 -0.03803759 0.09119683 -0.063516706 0.31246722 0.38019085 0.28067383 -0.13423392 0.01270802 -0.006495306 -0.048876256 0.080137916 -0.18470702 0.12304763 0.16740029 -0.03217032 -0.2468562 0.1948281 0.4297964 -0.027492233 -0.058998924 -0.058343817 -0.06735594 0.093448445 0.42060146 0.17944118
43 0.15167986 -0.35960162 0.4957994 0.0032258136 0.12037497 -0.3043098 -0.09802782 0.03287084 0.45872805 -0.027067581 0.4597473 0.34292462 0.0073839733 0.45625427 -0.17534158 0.008751631 0.05262926 0.037047558 -0.112810194 0.023422813 0.35147336 0.067282364 0.11255247 -0.22681458 -0.25070882 -0.09646121 -0.37615734 -0.005414824 0.4604712 0.08536991 -0.03337532 0.027292583 0.23809738 -0.030135376 0.44461104 0.21887597 0.1561791 0.22474597 0.0637797 -0.09312683 -0.2967218 0.14526887 0.31428492 -0.19194704 0.17946379 -0.3111438 -0.4605237 -0.09887671 -0.06446282 0.21737716 -0.027796809 0.35245553 -0.048766248 -0.40811682 0.17996214 0.3370575 0.24269229 0.04569639 -0.018882053 0.08726358 -0.064481616 -0.13757566 -0.10555556 0.03641546 0.3424672 -0.008000165 -0.06484672 0.014709169 0.00022200204 -0.032498028 0.077414244 0.008088834 -0.45568088 -0.40607587 0.18605845 -0.015288731 0.2242764 0.26361337 -0.074203156 0.34322837 -0.3020201 -0.24150607 0.116203874 -0.06944994 0.3225982 0.5499989 -0.12803297 -0.20577995 0.013698022 0.04747752 -0.2115848 -0.35549837 -0.045693655 0.24909435 -0.0590914 0.14193685 -0.30800474 -0.122392826 -0.08166764 -0.3078545 -0.031192636 0.36694005 -0.39948136 -0.0009293646 -0.29040226 0.20181948 -0.30986586 -0.2513019 0.14202084 0.2520902 -0.018078148 -0.33478978 0.15479907 0.29105276 0.036098626 0.24774708 0.034839097 0.038816452 0.10422942 -0.15035821 -0.33166146 -0.2641392 -0.40538165 -0.25173485 0.030457554 0.23077542 -0.4262485 0.18448724
78 -0.25578842 -0.15834981 -0.19116642 0.5274375 0.11562291 -0.042282715 -0.32676396 0.11502165 0.25974262 0.13813728 0.15321003 -0.17869534 -0.048875105 -0.497212 0.13765343 -0.04401007 0.039686654 0.39907047 0.04073612 0.37719673 0.26941824 0.21490408 0.040030155 0.06469489 -0.055760488 -0.0004790635 -0.16842301 -0.07323968 0.36517844 -0.38271388 -0.07969435 0.35630587 0.3045301 -0.020767765 -0.31888747 0.11533745 0.10811763 -0.15889378 0.33567476 0.04799055 0.007821522 -0.0812379 -0.092759885 -0.19340622 0.1363665 -0.14818603 -0.1544299 -0.17296375 -0.17882106 0.12735587 -0.17727134 -0.34431428 -0.18559094 0.17098528 -0.059679847 0.2319202 0.10685661 -0.15158847 -0.28542432 0.25933465 -0.1403848 0.03174865 0.3165286 0.14718856 0.1140478 -0.33120495 0.039561015 0.17073748 -0.026363831 -0.04764864 0.13395275 -0.11835427 -0.24847667 -0.20651326 0.43686795 -0.279378 -0.41371804 0.32949966 -0.18653171 0.3522684 -0.06480912 -0.44951484 -0.12812418 0.06576246 0.33699614 0.03501246 -0.082354724 -0.1973418 -0.15838183 -0.06509929 0.15483208 -0.62271917 -0.07700021 -0.15089098 0.2736247 -0.22859046 -0.039334845 -0.14071052 0.12492842 0.009035155 -0.4590413 0.04608077 -0.21721014 -0.2295182 0.09001683 -0.19232127 -0.26361048 0.091927364 0.2862364 -0.14830312 -0.15373063 -0.39878428 0.40496165 -0.23107061 -0.2978769 -0.009841816 -0.004763078 0.052951284 0.0022774576 -0.0452637 -0.10084288 -0.3161028 0.026653513 0.22465539 0.33612588 -0.23120095 0.19690494 -0.2599007
79 0.17547275 -0.18016632 -0.14639051 0.43599728 0.20574161 -0.017355124 0.067518465 0.108140446 -0.40406322 -0.081975035 -0.0028531565 -0.053429116 0.09401156 -0.2590095 0.25396135 -0.097505115 0.23446584 -0.13453323 -0.11496658 -0.35639852 -0.17440271 0.1857625 -0.2514765 -0.2105485 -0.16711444 0.26786855 0.28345758 0.06860072 0.39456818 -0.0218037 -0.12457386 0.07499872 -0.058178093 0.20436917 -0.23486488 0.20403633 0.50715494 0.021540357 -0.15823835 0.019073807 0.07118686 0.093575135 0.031155407 -0.07388415 0.13749579 -0.29226556 -0.1705839 -0.38098878 0.30467206 -0.18180338 0.115859956 -0.041270014 0.27363774 -0.04192806 0.0021757507 -0.2329794 0.1102783 -0.007955685 -0.639092 0.019503223 -0.11684054 0.029198835 0.44285023 0.04420603 0.033837296 -0.19546713 -0.08618566 -0.03277939 0.00955633 -0.24462208 0.0960743 -0.21911581 -0.34179652 0.011381561 -0.16954261 0.048513398 0.0056595528 -0.20235977 -0.049195807 0.041388 -0.02804414 0.08711076 0.12931791 -0.037784953 0.22585374 0.17416404 0.40504625 -0.008433211 -0.098168 -0.13571401 0.29562762 -0.1502386 0.085367225 -0.10457869 0.1426369 -0.20012042 -0.07019391 -0.054446336 -0.10229609 -0.33127412 -0.32978302 -0.34059018 0.042369384 -0.1836239 0.12589699 -0.26162907 0.008844578 -0.007956993 0.08529068 -0.15024936 0.19338931 -0.06344181 0.381341 -0.02956611 -0.2967045 0.81191844 -0.27786225 0.13022693 0.48989755 -0.06670141 -0.3572279 -0.017071936 -0.41814113 -0.047122493 0.058926236 0.08640957 0.06332519 0.12237362
82 0.186157 -0.5646453 0.5128319 0.4814389 0.022099268 -0.482305 -0.11968891 -0.13822673 0.25286895 -0.2283112 0.04545328 0.42714846 0.2881361 -0.16606826 -0.13056536 0.19427018 -0.2556138 -0.2994941 -0.03775134 -0.119779915 0.10208723 0.12839629 0.13077797 -0.07800708 -0.35608461 0.3193496 0.073264465 0.24092482 0.2713164 -0.33590907 -0.38939837 -0.1281916 0.15955861 -0.05417735 -0.386561 0.16104934 0.18694268 -0.20403108 0.27238935 -0.16423388 0.050485652 0.11889075 -0.099095725 -0.29856515 0.027983526 0.3404572 0.12792033 -0.0839272 -0.1530339 0.38978252 0.29708818 0.31574747 0.13955787 0.020782724 -0.20595297 -0.17255577 0.52766186 -0.10524248 -0.2549597 0.046496265 0.046424452 0.10564173 0.15419686 0.2240832 0.29953086 -0.18493812 0.2390586 -0.08244596 0.19881384 -0.07783142 0.2808589 0.06501518 -0.3328552 0.14120561 0.22564165 0.070397876 -0.26099792 0.19878323 -0.35590377 0.24169487 0.08231374 -0.034018017 0.11565048 0.13884918 -0.048388213 0.3063296 -0.11744169 -0.14678924 -0.02960128 -0.076471105 0.026463185 0.020648934 0.21155213 0.061474696 -0.14483833 0.16334283 0.059947103 -0.3619103 0.38984776 -0.2950171 0.19530131 0.054610018 -0.097477935 0.17978798 0.22685461 0.17130676 -0.3245359 0.03930502 0.19334443 0.13397531 -0.018673249 0.02271404 0.03710432 -0.06494798 -0.3942058 -0.027456969 0.16645081 -0.038323928 -0.34829873 0.12853123 0.26633525 0.027886773 -0.11329344 0.16755958 0.17426743 -0.17698419 -0.3404897 -0.24105014
35 -0.28133434 -0.22305535 -0.21242647 -0.019825099 -0.18502124 0.26702747 0.07959892 -0.048429027 -0.037483484 0.32092044 0.2892504 -0.22842915 0.05515572 0.16032214 -0.33833966 0.26375186 -0.21516708 0.07421411 -0.34374246 -0.15947995 0.22984113 0.22272469 0.047719173 -0.14931276 -0.044552572 0.21815436 -0.24650136 -0.30644444 0.27960038 0.078018196 -0.32746437 -0.152809 -0.15294906 -0.10753635 0.26099834 0.20596804 -0.0039020767 0.0562621 -0.040149126 -0.42350018 0.22853239 -0.050530594 -0.023813857 -0.41003376 0.17518814 -0.24511774 -0.15008198 0.14777593 -0.09319294 -0.08636317 -0.048341557 0.23098993 0.05333106 -0.02309984 -0.15887411 -0.22195137 0.65122306 -0.18887573 -0.06939114 0.07664472 -0.043281056 0.2503989 0.25132623 0.066372365 0.119073406 -0.19666088 -0.036332004 -0.13038062 0.38262087 -0.52205306 0.35796085 -0.07259595 -0.17335267 0.23319805 -0.06885646 -0.11609208 -0.09722497 0.011592475 -0.2439438 0.19131014 0.1218895 0.012973595 0.04366981 0.0105036525 -0.051179398 0.27966294 0.23998888 -0.060775515 0.1445948 -0.09090788 -0.16797075 -0.029377272 0.11871467 -0.016779525 0.3219736 -0.37401932 -0.22319013 0.0336717 -0.23445415 -0.22207916 -0.19377595 -0.17663555 -0.26888636 0.113072075 0.09721434 -0.14249389 0.24871646 0.117418624 -0.2396007 -0.44719562 -0.20372619 -0.2551059 -0.28513956 0.122063644 -0.48134777 0.12818776 -0.14357716 0.37805676 0.06342263 0.046484556 -0.3259198 -0.33113408 0.047786787 0.18869022 0.4934015 -0.3945136 -0.3552749 0.14460583
130 -0.10965606 -0.16514255 0.027279155 0.04595877 -0.030702291 0.012937182 0.19433704 0.16269512 -0.013987007 0.11341852 -0.31557074 0.0608091 -0.1211447 0.08490546 0.18304643 0.089612566 -0.3475344 0.08935117 -0.08972855 -0.082389675 0.2911647 0.19197026 -0.07883097 -0.2496881 -0.24697681 -0.00401323 -0.2319943 0.1803249 0.010558887 -0.058743592 -0.12818225 -0.16280413 -0.0354332 -0.055277325 -0.2739615 0.16808663 0.049320884 0.36141363 0.30417114 0.0486324 0.37943208 0.18853462 -0.37452134 -0.06598809 0.4793596 -0.22851427 0.47969696 0.08678231 0.0050671427 -0.044669114 -0.30014965 0.15892959 0.32004452 0.23133066 0.042079024 -0.10498589 0.27311772 -0.003105426 -0.046149623 0.22129856 -0.28791744 0.048388463 0.36040476 0.34335014 0.2303208 -0.028556503 -0.04632703 0.2390818 0.16615863 -0.14553405 -0.019326804 0.03646483 0.004547719 -0.15599598 -0.06019368 0.18316416 0.06497801 0.23284884 -0.37050056 0.21224678 0.20686775 0.00871993 0.07391458 -0.06235169 0.22943802 -0.28491727 -0.14857373 -0.107757136 0.115799636 -0.15258294 0.32154644 -0.48913848 -0.14710249 0.00886042 0.2347478 -0.26747802 -0.78452307 0.07525172 -0.09468807 -0.3168445 -0.40096718 -0.41563356 -0.05047347 0.15777966 -0.33206627 0.081884466 0.14140126 -0.029292023 0.40669736 -0.027453508 -0.0981925 -0.14464964 0.02609143 -0.046996105 -0.08349787 0.5921967 0.22373448 0.24873243 0.3698666 -0.015592884 -0.32119823 -0.054642793 0.0006398215 0.06367088 -0.52471364 0.10238483 0.13682425 -0.0497199
118 -0.39427215 0.04207439 0.27119738 0.013222296 -0.010319413 -0.14691699 0.08658198 0.3458535 -0.06514115 0.22040996 0.18872428 -0.012673951 -0.31051832 0.34266976 0.09410666 0.1258111 -0.11640297 -0.26737326 -0.12658618 -0.13257442 -0.25503054 0.14821117 -0.31476617 -0.06574832 0.04425862 0.06414248 0.056209005 0.09071798 -0.074229516 -0.30412027 0.16738398 -0.13886473 0.17361881 -0.15913725 -0.30105162 -0.16588457 0.42678314 -0.20179977 0.23581837 -0.015964435 -0.10189818 0.08920172 -0.031911675 -0.09957733 0.11314717 0.13350917 -0.17320786 0.042775672 0.11589819 0.4999045 -0.04300869 -0.20869201 0.32899296 -0.019243855 0.04472521 -0.034157366 0.3904578 -0.015404862 0.024975967 0.30657125 0.07240403 0.18011601 -0.12586518 0.17523506 0.09140964 -0.16416898 -0.47487053 0.20253734 0.07715056 -0.10216053 -0.28418034 0.007948072 -0.49614063 -0.19852519 0.51188874 -0.016234785 -0.51555616 0.17472932 -0.14666313 0.49537268 -0.36455414 0.017098112 -0.09812783 0.16569234 -0.113994054 0.1854084 0.22513096 -0.13907939 -0.035366047 -0.04537628 0.12284395 0.3486458 0.1535407 0.10692005 -0.15828006 0.40940723 -0.44810233 -0.1694244 -0.29167196 -0.3569102 -0.22530843 0.03395091 -0.061218284 0.11275933 -0.291614 -0.06437313 0.01152371 0.047851633 -0.03235663 0.061321963 0.40721625 -0.27803355 0.461413 -0.07201631 -0.06671662 -0.059192274 -0.43116203 0.20763132 0.30413243 -0.14254941 -0.3412089 -0.12296305 -0.046926204 0.08301798 -0.26468435 -0.27243173 0.07393389 -0.07731923
17 -0.15611671 -0.26108944 -0.1520299 0.31363523 0.23792362 -0.21232036 -0.0450071 -0.112313084 0.17392729 0.17297383 0.10365998 -0.0007652524 -0.22922704 -0.105426215 0.35821623 0.11776938 0.023635883 0.56286067 -0.18555267 -0.4202374 -0.15133822 0.031176986 0.070171066 -0.34122163 0.14490378 -0.35884356 -0.0037872568 0.03883895 -0.0351463 -0.23460819 -0.21479061 -0.25157395 0.21265222 0.33299595 -0.014670696 0.024436163 0.18200023 0.17370461 0.5359272 -0.094592765 -0.12061819 -0.008010412 0.06893311 0.1016776 0.25705385 0.18059628 -0.025463143 0.027637132 0.37054968 0.18620732 0.22831368 0.34483078 0.065220416 0.15088253 0.03520375 -0.09423539 0.09419727 -0.25566903 0.006827969 0.45169142 -0.27781555 0.1655456 0.26675996 -0.31805766 0.10152809 0.26348677 -0.007627603 0.20828381 -0.13861036 -0.5106222 0.4623844 0.2433508 -0.26653394 -0.0005633374 0.17139688 -0.1458827 -0.2921371 -0.013236664 0.18851933 0.27297205 0.11560263 -0.036274094 -0.035017263 0.098748066 0.028361524 0.43845892 0.14505589 -0.2145331 -0.41641334 -0.15932252 -0.15521465 -0.111524634 0.34747866 -0.15797527 0.15092908 0.39026058 -0.23076013 -0.008450251 -0.22970252 -0.077182494 -0.32246643 0.0065960917 -0.2994648 5.5469405e-05 0.073391125 -0.027130077 0.030955724 0.3043995 -0.10106413 0.15662828 -0.06737489 -0.040649243 0.047233373 0.05069134 -0.3393814 0.13297288 0.1763755 -0.2625307 -0.13887182 0.16973585 -0.31500462 0.0013770538 -0.21692152 -0.017124394 -0.23907146 -0.4158876 -0.11832223 -0.04664535
16 0.047794584 -0.2978738 0.024223682 -0.06786075 0.18655093 -0.24764812 0.15925415 0.1436102 -0.112389304 -0.04187486 0.19572589 -0.5650399 -0.0051523363 -0.01934788 0.16891274 0.05734143 -0.2231739 -0.05601647 -0.07357888 0.122979276 -0.067819536 0.43819818 -0.047594547 -0.14721529 -0.06560278 -0.046436608 -0.036261577 0.16066799 0.18486322 0.15387714 -0.27728724 0.2081697 0.059334133 0.16058794 -0.33041832 -0.2841713 0.018651988 -0.09448526 0.13333338 -0.06721265 0.0037232598 0.18243538 0.17368403 -0.34355628 0.14126746 -0.030895846 -0.29736128 -0.10314492 0.07278995 0.10467383 -0.042246386 0.3550848 -0.09241856 0.12847854 -0.41438168 0.024454383 0.2970381 -0.1920852 0.13431832 0.081249475 -0.22226539 0.14146262 0.3405791 -0.12529026 0.48958763 -0.2538185 0.19673046 -0.121458165 0.3407827 0.38554177 0.02470203 -0.27494583 -0.5112176 0.10936229 -0.13076527 0.016845226 0.30940682 -0.0494225 0.17849523 0.39827535 -0.17438084 -0.19270392 -0.05412226 0.6639148 0.35757446 0.18734248 -0.13257802 -0.14839563 0.23448181 0.53175217 0.045199737 0.23872888 0.41181514 -0.23948687 -0.54908097 -0.10227877 -0.16113019 0.009378043 -0.20437284 -0.14078782 -0.18844843 -0.11063321 -0.10206202 0.21815404 0.1309819 0.15921545 -0.010037779 -0.12949957 0.13260801 -0.2315487 0.13336553 -0.2078739 -0.40133032 -0.28372076 -0.12925893 -0.090984836 -0.008372413 -0.08848052 0.5011183 -0.127297 -0.28668162 -0.05775452 -0.20385078 -0.18240021 -0.21390739 -0.07674066 -0.010699372 -0.15386954
26 -0.35126525 -0.48830366 -0.1701422 0.35402122 -0.1273085 0.084279254 -0.05125023 -0.13491507 -0.2663662 -0.21718253 -0.15649098 -0.46270493 -0.37674817 -0.06726126 0.27254915 0.06683815 -0.35932097 0.30473554 -0.112799875 -0.17894794 0.31928948 0.43587363 -0.2779447 -0.18044542 -0.3690414 -0.014014182 -0.073240854 0.047419637 -0.1937638 -0.08949751 -0.30735734 0.011777013 0.091621585 0.14943929 -0.022042206 -0.06611834 0.030818773 0.13349728 -0.04860646 0.06968932 0.16696551 -0.15917267 0.1447912 0.09536879 0.47846922 0.063670896 -0.048584923 -0.31992945 0.0014606086 0.11868588 0.42866635 0.10638909 -0.0037487326 0.108413965 0.2581968 -0.047975898 0.79018307 0.34352997 -0.06994806 0.025929788 0.13859738 -0.089290105 0.2762099 -0.25757283 -0.08320242 -0.25727475 -0.20081174 0.007012125 -0.07852913 0.35033864 0.23983723 0.06444759 -0.18660384 0.24133311 0.23756555 -0.14506555 -0.16246012 -0.022063158 -0.056504425 0.08134246 -0.0811852 0.044945333 0.07881817 -0.047862604 0.01625303 0.0025903974 0.23174109 -0.17536375 0.024353972 0.029937558 0.10027335 -0.0027536172 0.13265218 0.025016733 0.18585403 0.14960001 -0.08358216 -0.36946064 -0.50782424 -0.11169999 0.11507573 0.05006507 -0.27732778 -0.014440291 -0.11467575 0.259578 0.28978324 -0.044304606 0.39293492 0.26572475 -0.14345695 -0.26899967 -0.10229446 0.15381919 -0.04892398 -0.025091581 0.30171824 0.19957577 0.465296 0.4822414 -0.1992524 -0.05675776 -0.37546602 -0.25180808 0.102460764 -0.019869216 -0.113295324 -0.21085474
132 -0.11690295 -0.031853266 0.17374904 -0.066482976 -0.13850142 0.01683473 -0.036521878 -0.5552901 0.12552899 0.28189656 0.22266386 -0.05016347 0.12607132 -0.052954327 0.32447803 0.43412265 -0.05465286 0.18320045 0.07450121 -0.16942565 -0.046123635 0.3251247 0.119510524 -0.2646583 -0.22231926 0.2164193 0.16699845 -0.3201839 0.072244465 -0.22083896 -0.1882213 0.06727934 0.11667963 0.24420048 -0.13003811 0.027253807 -0.008079755 0.058854215 -0.18905953 -0.39969528 0.15538114 -0.04226209 0.13237056 0.124932446 0.02523881 -0.14521329 -0.23663127 -0.3814084 0.19695835 0.42237696 -0.1102993 -0.20781285 -0.13086137 -0.2170581 -0.39228913 -0.005428167 0.34072667 -0.054572776 0.17465845 0.20771514 0.07356184 -0.077391535 0.017339732 -0.17472288 0.43299416 -0.37013313 -0.066177696 0.3007524 0.041463085 -0.19629534 -0.054756694 0.066220656 -0.19330992 -0.24846981 -0.10236147 -0.119840726 -0.13679338 0.43672568 -0.04538095 0.23388882 0.17748487 -0.059599902 0.4180056 -0.07825513 0.22945094 0.08248128 0.11667974 -0.2922696 0.0013535421 -0.20810989 -0.39007378 0.15630057 -0.0022381912 -0.07686932 0.29230782 -0.118670896 -0.57580084 -0.23560241 -0.20787027 -0.33868685 0.026021108 -0.13666137 0.14568195 0.31880486 0.1921126 -0.21924782 0.22818005 0.18011035 0.074139826 0.17822586 -0.15601723 -0.18616994 0.16316052 -0.2188555 -0.04025519 0.02324489 -0.008445054 -0.122243546 0.5021072 0.020625656 -0.08963222 0.394747 -0.08632382 0.10963804 -0.21146692 -0.07124846 -0.25785664 0.104848586
27 0.12009914 -0.59585124 0.14147992 -0.097844124 0.30282596 -0.023651835 -0.13094223 0.04273046 -0.21395844 -0.20493391 0.37499985 0.13925983 -0.1947356 -0.08247113 0.29799998 0.5466541 0.012631551 -0.032133304 -0.05272492 -0.07084243 0.04781003 0.24593244 -0.07654931 -0.10041831 -0.06726573 0.00636525 -0.06492386 0.1845146 -0.07485991 -0.16594753 -0.3519112 0.027303267 -0.21980655 0.5572327 -0.11139941 0.2535277 0.051370647 0.12844573 -0.014633577 -0.28756115 -0.15982367 -0.23397492 -0.2877052 -0.060049042 0.24703398 -0.18638507 -0.16373274 -0.012286642 -0.23241691 -0.119585805 0.1433781 -0.14957641 0.15605098 0.3725722 0.26330107 -0.19452493 0.31868505 0.08359617 0.20590952 -0.093673445 -0.21399444 -0.22019452 -0.04393709 0.062144272 0.07965579 -0.2611042 -0.028564524 0.6615125 -0.48266944 -0.19361958 0.035397574 -0.010770032 -0.44356573 -0.10455154 0.19180663 0.15298307 0.010078439 0.041470166 -0.2156934 0.16832799 0.0010817284 0.06762201 0.22541773 0.44521868 -0.08236742 -0.039693836 -0.16624503 -0.2441618 0.08075013 0.23170252 -0.28789562 -0.18586445 -0.106780335 -0.08459502 -0.21805386 0.0058880416 -0.2090063 -0.014593918 0.21091345 -0.10543889 0.23921873 -0.4334414 -0.29549813 -0.32422772 -0.20697682 0.029147187 -0.19602983 0.002750718 0.17412077 0.1545175 -0.12297638 -0.11239887 -0.009246597 0.3016781 -0.14015213 0.40347597 0.03925113 -0.3592279 0.31854132 -0.14713247 0.113135844 0.15233023 0.22524275 0.12670949 -0.11055267 -0.3935518 -0.015121875 -0.06512034
32 -0.034419935 -0.10642437 -0.4162707 0.37685764 -0.0649472 -0.17249617 0.0929415 0.30617613 0.25208607 -0.25132978 0.20941278 -0.23242912 0.2978513 0.16553546 0.32179448 0.07166751 0.021376457 -0.27454793 0.082984544 0.41739282 0.03309731 0.35761255 -0.16362141 -0.26585037 -0.4482002 -0.088896774 0.20519745 0.5054202 -0.11086814 -0.061085038 -0.49337932 -0.13811763 0.22892784 0.04701424 -0.17235588 0.12259481 0.0834956 0.36182812 0.22375873 0.08187583 -0.24816178 -0.051359054 0.14712903 0.124192975 0.33251145 0.29212716 -0.3678979 -0.16431493 0.2635477 0.10491039 0.064823166 -0.16887224 0.18805851 -0.11027268 -0.20672408 0.5729897 0.3230879 -0.22755574 0.09750029 -0.120473 -0.057169687 -0.30333155 0.13724077 0.13136806 0.24803413 -0.0075864703 -0.3551619 -0.17824785 0.2318284 -0.4211849 -0.001840284 -0.5917643 -0.3212943 -0.41254374 0.2298793 -0.12750635 0.517746 -0.046740912 0.007871462 0.255496 0.21789095 0.23400812 0.15688533 0.3218595 -0.1600686 -0.36751014 0.29575726 -0.093221866 0.008889461 0.12423838 -0.13376445 -0.17545342 0.13884205 0.12625223 -0.00839587 0.10880542 -0.25731295 -0.11090102 0.031764172 -0.23877177 -0.0834869 0.023611996 -0.057928912 -0.033703502 0.33111218 -0.048636865 -0.26271236 0.021197159 0.42991218 0.17244497 -0.26237077 -0.007927419 0.045243833 -0.18233734 -0.20463265 0.10558682 0.176234 0.119945705 0.028282192 -0.07607928 -0.087312885 0.094566144 -0.28116685 0.111923255 0.51548254 -0.35091388 -0.29686493 0.06861135
11 -0.051275857 0.098771825 0.14151762 0.39343587 -0.069217 0.027389493 -0.12488615 -0.258773 -0.30516475 0.14137138 0.33698222 0.10536698 -0.37278268 -0.07349959 0.23472872 -0.021994814 -0.19401179 -0.2713569 -0.030891182 -0.06622104 -0.0834273 -0.0058523146 0.3928831 -0.31301406 -0.2897434 0.05699008 -0.36840105 0.286011 -0.12195427 -0.22789198 0.16331387 0.0100943195 -0.08524399 -0.16310638 -0.08966712 0.069328964 0.39544863 -0.017336316 0.2622323 -0.3384446 0.6368158 0.28934455 0.027300155 -0.2823579 0.13976252 -0.040733412 -0.28049177 0.27232987 0.20983264 0.20526993 0.11353338 -0.44459018 0.6088364 0.08566989 0.06148184 0.09301756 0.2469476 0.020235892 0.11651048 0.2881015 -0.3288239 -0.15380098 -0.25711715 -0.07675499 0.08000075 -0.3166741 0.09836772 -0.10397256 -0.0065014157 -0.2698849 0.27110466 -0.14730592 -0.19146357 0.11663277 0.21821302 -0.0353852 -0.23176366 -0.19380221 0.05091851 0.19782019 0.24002174 -0.17718992 0.09235137 0.37407264 0.21472338 0.29193643 -0.035148375 -0.21433368 0.09639857 0.013974175 -0.14306535 -0.1084978 0.1793553 0.10495221 -0.14476183 0.06440851 0.04658592 0.05074689 -0.12350118 -0.17297377 0.06800318 -0.020132335 -0.051169384 0.08552532 0.019214502 -0.43012825 0.067164905 0.2310216 0.29184455 0.009250236 -0.07619075 -0.2964555 -0.21485308 0.38360023 0.26466542 -0.1539936 -0.22773688 0.24279585 0.32611832 -0.1387636 -0.41307914 0.018467179 -0.14261277 -0.09648938 -0.4574527 0.033910085 -0.6112779 -0.14063634
41 -0.009308329 0.032132693 0.014729693 0.48013917 0.07649299 -0.5419545 -0.2957402 0.35226926 0.22007288 -0.1040146 -0.020712027 0.056051712 -0.3783116 0.2094325 -0.18107288 0.12742542 -0.46230626 -0.4011107 0.25863385 -0.13595814 0.23221952 0.4660904 0.17626946 -0.064997524 -0.10905144 -0.06198335 0.19398686 0.15577146 -0.13072579 0.06254611 -0.18587784 -0.14484869 -0.025255341 0.15153497 0.4495334 0.13112329 -0.06589177 0.087695 -0.13236265 0.116198175 0.08408454 -0.14875346 -0.26695326 -0.12862173 0.5571275 -0.11746954 -0.14440536 0.058037974 0.036344748 0.21721816 -0.33365366 -0.162552 0.21282063 -0.25134566 -0.35881612 0.02776901 0.5185812 0.11492141 -0.031037072 0.18577711 -0.17623933 -0.025491202 0.064854495 0.115104005 0.18188572 -0.072206564 0.17605229 0.27496904 0.06310518 0.21923001 0.22190087 -0.16481248 -0.28596246 -0.16553022 0.045561537 -0.092829876 -0.005619046 0.23927797 -0.015381642 0.21774133 -0.074308485 -0.21863537 0.01911493 0.22410068 0.01431178 0.003187869 0.062324636 0.008769568 -0.27798194 0.17789558 -0.3407068 0.17081653 0.12613685 0.059826877 0.09864538 0.1650558 0.41330367 -0.10852684 -0.21696912 -0.13719076 -0.7413863 -0.43423977 -0.21252467 0.028155956 0.13159765 -0.01627134 0.4646468 0.38237712 0.061866023 -0.4453288 0.19328918 -0.13778012 0.101768166 -0.07049406 -0.09848814 0.024005922 0.08370784 -0.0440954 0.25629684 0.1170128 0.018473122 -0.07212339 0.18151295 0.100865625 0.04976216 -0.021642404 0.110682756 -0.3313733
62 -0.21522461 -0.018059272 0.27768174 -0.13757111 0.008982618 -0.19573832 -0.34888482 -0.033880915 -0.14322498 -0.24811986 0.31468278 0.16375454 -0.46225545 -0.08970651 0.04722973 0.32071802 -0.3057519 0.048495952 0.08147119 -0.032058742 -0.29374582 -0.046788972 -0.2668031 -0.32058358 -0.8360338 0.19692603 0.049280714 0.4075466 -0.29798883 -0.43980563 -0.29445 -0.12281317 -0.22917704 -0.028240407 0.03317661 0.30090538 0.06289956 -0.02132175 0.3630832 -0.32405758 -0.027780578 -0.11241837 0.34452584 0.059921965 -0.26671517 -0.27458814 0.38700435 -0.08379475 0.2617695 -0.06089864 0.17143829 0.24296197 0.10999683 0.020599384 -0.116416804 0.0554538 0.2943616 -0.22996609 0.18420103 0.16835608 0.30050245 -0.044434823 0.24277003 -0.1692154 -0.27903882 -0.20604238 -0.24352446 0.45076445 0.273493 -0.3605377 0.16939582 -0.11757909 -0.05047485 -0.014622445 -0.0035525954 0.11828463 -0.036946915 -0.0073464755 -0.21293999 0.091846064 0.23601699 -0.603231 0.12983379 -0.076520145 0.3089184 0.22004728 0.00568462 -0.29364324 0.14376889 0.26977724 -0.13100064 -0.19748646 0.01927573 0.22501878 0.22980866 0.13676922 -0.30800423 -0.1741052 0.27650544 -0.532462 0.03800964 -0.17570816 -0.05772454 -0.07145574 0.013074467 0.05832714 -0.009938037 0.1639989 -0.020904193 -0.13864003 0.2500004 0.05270024 0.3487171 0.039853066 -0.036874726 -0.07618402 0.17399326 -0.075483754 0.14337575 -0.17901057 -0.09021494 -0.12910858 0.05843282 -0.5549584 0.09819679 -0.12776934 0.09115045 -0.32140702
156 0.1629622 -0.047958024 -0.030525124 -0.21758269 0.1827616 0.053091493 -0.022889977 0.08009896 -0.27942786 0.46020257 -0.17474075 -0.20552453 -0.040074542 0.051078968 0.34724006 -0.032039285 0.17811416 -0.07756197 0.20030333 0.56071854 -0.12804621 -0.09236635 -0.30643526 0.12430012 -0.1804213 0.17448626 -0.1414827 0.49721265 -0.05083546 0.18499133 -0.18497391 -0.039481357 0.21251754 0.2211076 0.16972171 0.025465602 -0.10310753 -0.42745498 0.17876706 0.082737 -0.3344441 0.012567863 -0.18329544 0.055210683 0.25298098 0.018213362 -0.24772307 -0.014373351 0.15902317 0.23155995 0.0018318084 0.10305845 0.08655414 0.08418357 -0.08043746 0.3672714 0.25313315 0.082105234 -0.044435736 0.07912403 0.08951044 0.12111677 0.248686 0.359623 0.4109351 -0.41408956 -0.077821195 0.0436236 -0.14756702 -0.49351344 0.074231185 -0.18067724 -0.052866034 -0.04508984 0.24828897 -0.038013473 -0.4483312 -0.021036707 0.1697794 -0.19471833 -0.34115496 -0.43649477 -0.1930924 0.24157612 0.001981228 0.30285147 -0.1014308 -0.28161728 0.3974157 -0.038989633 -0.025509292 0.17280069 0.6079349 -0.097442895 0.2457764 0.023724014 -0.26975355 -0.2924602 0.03285225 -0.3132423 -0.25454035 -0.15840846 -0.3766265 -0.041071612 0.010748205 -0.080377504 -0.008435229 -0.09406286 0.060215596 -0.12221021 -0.17759223 -0.2355714 0.21009119 -0.39427364 -0.365454 0.18455699 -0.0064398954 0.22845694 0.0827125 0.1595202 0.006250605 0.08585049 -0.19375987 0.17199165 -0.3578462 0.24298185 -0.37592903 -0.08091366
93 -0.32855234 -0.40639222 0.1506408 -0.011105345 0.49624127 -0.008353448 -0.3837477 0.15484372 0.38316178 0.19496506 0.34697634 0.23491172 0.01673952 0.28673834 -0.09087301 -0.15101002 -0.24786179 0.010189071 -0.31204158 0.12903552 -0.18262461 0.3720335 -0.2092383 0.14463311 -0.35874802 0.079871394 -0.11631402 -0.14126162 -0.06570072 -0.1597997 0.264658 0.20429139 -0.16868016 0.5327685 -0.13228987 0.4636842 0.079413764 -0.14132963 -0.19864966 -0.0026635246 -0.048127204 0.32847407 -0.0134409405 -0.69323915 0.106295176 -0.058320988 -0.50119185 -0.19898492 0.1429029 0.078883454 0.3020598 0.40454814 0.2003937 0.0854716 -0.16960879 0.2123538 0.1689363 0.32198325 0.5233467 -0.15171994 0.1917234 -0.18071544 0.10316456 -0.046606362 0.22090435 0.1898019 -0.08333431 0.23365244 -0.03898274 -0.115568385 0.22347967 -0.3387788 -0.1625653 0.01670526 0.19110878 -0.21804807 -0.19702943 0.31961235 -0.17512342 0.15058435 0.15517032 0.16183531 -0.120772526 0.20688368 -0.21884778 -0.2876574 0.06652344 -0.13775457 -0.02598046 -0.057534043 0.16058934 0.17902808 0.09228545 -0.2685153 0.2536444 -0.067852326 0.18421164 -0.27651304 -0.28942385 -0.14369652 0.047377907 -0.26273417 -0.29693562 0.25143662 0.23978473 -0.048556242 -0.1873573 0.16386968 0.47226998 -0.004729284 0.0051373993 0.2095028 0.13722713 -0.16769092 -0.276294 0.058214463 0.08552424 -0.19791561 0.20538342 -0.012631958 -0.41900358 -0.25971678 0.10760526 0.20303446 -0.038209327 -0.09791351 0.02876111 0.14398651
51 0.0697202 -0.4696884 -0.027436174 0.18499306 -0.026670419 0.23088183 0.011018542 -0.05475329 -0.16542602 0.43066376 0.25337473 0.52371526 -0.27736723 0.3087018 0.2908588 -0.21283667 -0.40511316 -0.14128385 -0.30406207 0.0928519 -0.10737065 0.06783926 -0.24246864 -0.10374836 -0.04024656 0.25586364 -0.2741034 -0.07226249 -0.33653912 0.034456026 -0.012784654 0.027615895 0.17001039 0.15538828 -0.19014639 0.03655075 0.02827891 0.1308724 0.016974753 0.029981988 0.25051367 0.303328 0.025502894 -0.08121588 0.15646991 0.12976725 -0.27677438 -0.11643058 -0.25067148 0.26058626 0.1723024 -0.13594131 0.17517975 0.036591858 -0.21165411 0.0015936114 0.37687352 -0.19003302 -0.06733974 0.32849786 0.0043215957 0.03776464 0.2626739 0.09144168 -0.009165753 -0.31020132 -0.39465767 -0.020548837 -0.33102953 -0.10044292 -0.12578933 -0.28477636 -0.5437631 0.1676637 0.06885321 -0.13423969 -0.11529354 -0.20968667 -0.21233639 0.38530278 -0.42754325 -0.1811406 0.48546708 -0.036868677 0.045119155 0.20857659 -0.11676317 0.20483088 -0.73326653 0.36154467 -0.05896528 0.009189925 0.3781041 0.17290138 0.15538746 -0.05919395 -0.026595978 0.059809342 -0.027512608 -0.16560376 -0.11736342 -0.07033381 -0.08054024 -0.047380365 -0.17091818 0.21806027 -0.20984633 0.09873411 0.1683834 -0.32331666 0.018313544 -0.10019756 0.1975086 0.047655966 0.28632584 -0.03245551 0.33625066 -0.04455544 0.3029176 0.22564812 0.2438998 0.44853368 0.26740697 0.4441088 -0.18336143 -0.054083187 0.012889954 -0.006626718
61 0.15596391 -0.15532812 -0.018015971 0.24898867 0.19448972 0.032124255 -0.12942123 -0.07325773 -0.116800115 0.02387159 0.27445135 0.11922052 0.016286703 -0.10357562 -0.010201216 0.5636408 -0.26098058 -0.26180777 0.20683187 -0.36342368 0.106918395 0.3937498 -0.56161064 -0.29920515 -0.52671903 -0.34555453 -0.028703975 0.24675183 -0.03197875 0.18300213 -0.35587487 0.099071056 0.07435507 0.00030459807 0.28505507 0.021085516 0.27305016 -0.055793047 0.09644025 0.30356276 -0.3000496 -0.12384082 0.17782061 -0.34567964 0.050692365 0.35476968 -0.07383921 -0.23031974 0.26843503 0.18562365 -0.21143627 -0.22626193 0.08967571 -0.113914445 -0.028393496 0.16649653 0.16230692 -0.27508277 -0.051590167 0.2494904 -0.2975746 0.38231227 0.24404407 -0.33225548 0.08924479 0.11860847 -0.18560493 -0.15775682 -0.42128757 -0.2322809 0.045597076 -0.22235455 -0.49242535 0.10103944 0.17338154 -0.34762543 0.15330176 -0.15438555 0.12177942 0.3527058 -0.04855032 0.20751701 0.35786563 0.092300765 0.11499677 -0.21339457 0.1653816 0.16100742 0.44145536 0.07170507 0.03010028 -0.1909684 0.29289827 -0.05005168 -0.06775597 0.21375772 -0.0031392218 -0.06709697 0.011221898 -0.281065 -0.21347788 0.07290584 0.09108488 0.36619115 0.009734696 0.028926203 0.027795296 -0.018198147 0.051084865 -0.10158479 -0.081312336 -0.37233055 0.28751248 0.30573386 -0.07372677 -0.01920565 0.26527447 -0.028347597 0.11002354 -0.32697016 0.033595048 0.2420187 -0.3962829 0.22232635 -0.19316734 0.12836975 0.25953344 -0.17234527
112 -0.14112851 -0.08376176 0.20235987 0.15260535 -0.054341078 -0.27720368 -0.26065472 -0.22566849 -0.17493527 0.026745725 -0.17987196 0.1420633 -0.3730102 -0.032705214 -0.32780007 0.0482588 0.13488826 0.07805175 -0.05971705 -0.33399016 -0.18553029 0.1788805 -0.26145163 -0.11088173 -0.50476515 -0.044948258 -0.15633523 -0.058117703 -0.11382137 0.17347549 -0.21812946 -0.40038794 -0.12953334 -0.12509538 0.03208336 0.055075087 -0.03728522 -0.29720718 -0.1437385 0.20918185 0.39023373 0.04918888 -0.2924499 -0.13519739 0.011695398 0.13134593 -0.45393535 -0.32696003 -0.17015669 -0.0017361229 0.05369067 0.10698352 0.114166394 0.038816642 0.14109233 0.13985942 0.47036323 0.2687701 0.05039505 0.2568704 0.076324716 -0.05793013 -0.034946345 -0.105537154 0.04688751 -0.03458784 -0.10744409 -0.007042832 -0.14843103 -0.021998804 0.1572437 0.08639569 -0.35748404 0.29608148 0.17063712 -0.41008288 -0.27897808 0.0816241 0.01701837 0.10176952 0.10818114 -0.038799573 0.22479132 0.19903894 0.60085297 0.080282226 0.4138368 0.11757443 0.23836085 0.12629654 -0.041843437 0.24030575 0.026369317 -0.38496196 0.24731354 -0.13509281 -0.25689253 -0.14533633 -0.26657793 -0.32592237 -0.42410356 0.40057543 -0.44388357 0.28644362 0.23289543 0.17030276 -0.32689202 -0.26628202 0.32727063 -0.005262815 0.13901557 0.026090242 -0.41011018 0.19713213 -0.10904586 0.4339536 0.3523806 -0.16046979 0.3609207 0.119897716 -0.28252608 0.095925346 -0.018032279 0.075340465 0.14483188 -0.26619908 -0.08634239 0.030082723
13 0.049365725 -0.17579667 -0.18121639 -0.21943597 -0.18332362 -0.07954111 -0.20596403 -0.17522296 -0.10637026 -0.05202058 -0.1585783 0.2072934 -0.16378154 -0.2943035 0.3014647 0.089125894 0.22719662 -0.11148051 0.025714107 -0.27415493 0.29774287 0.3047342 -0.3696237 -0.4017126 -0.38445628 0.16551343 -0.34775773 -0.09177742 -0.15343629 0.19716495 0.10226473 -0.037512135 -0.28269842 0.21267794 -0.020778153 0.06688509 -0.039511472 -0.24074379 0.09876065 0.35573775 0.13353096 0.30286393 -0.1337836 -0.14658771 0.046342082 0.21101527 -0.004487308 -0.20526716 -0.19623008 -0.24930559 0.31214607 0.23499325 0.17770271 0.1214435 -0.07107066 0.29740956 0.37945116 -0.17427374 0.04382358 -0.14993408 0.13654332 -0.10796472 0.11626425 -0.19507654 0.10064596 -0.26483694 -0.009954756 0.016558373 0.18277653 -0.18621425 -0.1869415 -0.03415743 0.047746655 0.060540844 0.0874901 -0.21239635 0.07869512 0.33603162 0.21235129 0.044498183 -0.035802994 0.15252718 0.13166948 0.18111211 0.24638715 0.27714658 0.100752756 -0.014958659 0.20774682 0.031725187 -0.031314213 0.21185455 -0.2241836 -0.11338934 0.48977166 0.105004735 -0.090611346 -0.3374655 -0.46420166 -0.009847698 0.012105893 -0.1362944 -0.1715716 0.10989322 0.25916 -0.4460358 -0.03654513 -0.186396 0.2962291 -0.5243939 0.3969662 -0.39715573 0.11131878 0.05017299 -0.38240606 0.6846055 -0.053203963 -0.24787474 0.23209688 -0.042822782 -0.016487518 -0.3554205 0.054699156 0.088469476 -0.08055061 -0.06707427 0.13162105 -0.08100149
80 -0.18068911 -0.45038053 0.2351117 0.030422335 0.30733284 0.17851375 0.58685106 -0.057871558 0.26572472 0.15849519 0.25035667 -0.06579345 -0.071054466 -0.11980493 0.38455287 -0.17024317 0.1406536 0.25658554 0.19088994 -0.15641136 0.002605357 0.24030179 -0.0070259334 -0.05466461 -0.21612059 0.5329573 0.18316871 0.44766784 0.3451725 0.13306265 -0.3455916 0.36962616 0.19306003 0.05196137 0.21496966 0.17976561 0.09476965 -0.24211544 0.08615111 0.1973682 0.065377526 -0.046010967 -0.2481196 -0.40771577 0.024877105 -0.3100729 -0.3737995 0.6462732 -0.11878908 0.199738 -0.13052839 -0.2329502 0.053400725 -0.2291605 0.34369648 -0.03707608 -0.079906374 0.3459761 -0.071434185 0.41943 0.020402092 -0.0127901565 0.047880072 -0.038648337 -0.07381228 -0.11761562 0.0039655454 0.36867616 0.037806783 -0.4424543 0.5378707 -0.21028276 -0.16589372 0.02389366 -0.0120269945 -0.23384765 -0.1887758 0.0763336 -0.37055793 -0.010875632 0.31437963 -0.40432638 -0.18036501 0.22733931 0.18225785 0.08028811 0.18435997 -0.065580174 0.19197734 -0.095587865 0.045825697 -0.12157734 0.3073158 -0.06630781 0.1536632 -0.24925558 -0.1677007 -0.33866945 0.009978986 -0.54956484 -0.15749162 -0.33874667 -0.01273831 0.562071 0.28723565 -0.21364312 -0.17581205 0.035838597 0.3286141 -0.36175895 -0.11908322 -0.35749707 0.012607194 -0.08781988 -0.21404283 0.27192745 0.14512336 -0.02290366 -0.29541844 -0.15197602 0.2542049 -0.0639149 -0.1616258 -0.11565939 0.123807125 -0.3057959 0.103887446 0.038948733
592 0.0076293964 -0.013074263 -0.009846788 0.21486638 -0.022419354 -0.058583096 -0.17495327 0.3010264 -0.39780518 0.19213486 0.18074746 0.46155205 -0.21435156 0.026245125 0.38768926 -0.070181176 -0.13073058 0.07643675 0.27391982 -0.17665307 -0.17662393 0.36538026 -0.08025073 -0.32203782 -0.60642725 0.033172444 0.061707415 0.11512569 -0.009755786 0.026980145 0.25713193 0.09310553 0.2063675 0.6289686 0.23970556 0.2365995 0.37624076 0.19465055 0.07133607 0.17984693 -0.1495971 0.22381271 -0.23207149 0.18919288 -0.17960803 -0.0021120938 -0.26742667 0.15253173 -0.018138148 -0.42764062 0.038610365 0.39309078 0.19779092 0.06501724 -0.08057099 -0.14763257 0.49352145 -0.22804716 0.16995601 0.22453617 -0.27522975 0.1453299 0.36663374 0.17536089 0.4100874 0.25626215 0.2659027 -0.14667548 0.05000394 -0.08522972 0.14052284 0.019235402 -0.3036192 -0.06310157 -0.35886517 -0.13479751 0.20602818 0.058221832 -0.1180175 0.0059568705 -0.30097526 0.2086143 -0.11438069 0.11158931 0.032338466 -0.17763913 0.054096594 -0.004603762 -0.013570557 -0.021485483 0.1271439 0.2931323 -0.10597094 -0.06783696 0.40455064 -0.30605906 0.14008997 -0.14241254 -0.14528328 -0.21733892 -0.2963213 0.056064248 -0.0688926 -0.20948319 -0.025147557 -0.2674099 0.15290684 0.005492969 0.51643753 -0.11268385 0.28424382 -0.30713764 -0.041370258 -0.29631752 -0.102411985 0.10781476 0.0539343 0.35886768 0.26426947 0.09650871 -0.03817849 -0.17624864 0.41708484 -0.2440213 -0.00089066953 0.016878124 -0.14313054 0.061957143
4 0.3922491 -0.2125155 0.27077413 0.09327694 0.04823291 -0.2458717 0.26120418 -0.294541 -0.41391826 -0.055131033 0.28707972 0.03211861 0.08664063 -0.008989337 0.13092266 0.3194081 -0.2956684 0.059054304 -0.2525378 0.057600107 -0.46857506 -0.045795467 -0.19776104 -0.27193984 0.035204425 -0.22512195 0.16850227 -0.15817687 -0.18895113 0.15732206 0.059006732 0.23741256 0.038193412 0.022985866 0.074412756 0.01927105 0.28492457 0.10794844 -0.07440549 -0.110859096 0.2584669 0.12894116 0.003950645 0.10393018 0.26504424 0.19036385 -0.01031474 0.39136222 -0.10141154 0.116346814 0.098641016 -0.030387498 -0.065247424 0.045592383 -0.16502957 0.4079615 0.29393092 -0.24215294 -0.31465784 0.08650286 -0.26411977 0.016294431 0.4794246 -0.08967736 -0.015254927 -0.032450117 0.31862926 0.06435841 0.093343385 -0.0003609134 -0.005768888 -0.22272328 -0.25679663 0.009386851 -0.101438776 0.331399 -0.05804688 -0.23880585 -0.023150284 -0.10896802 0.11659372 0.08043201 0.17592248 0.409382 0.12759934 0.35786587 0.39553234 -0.26891777 -0.12260659 0.1711165 0.099067025 -0.0983572 0.0061980276 0.10581291 0.24475741 -0.31482333 0.48557022 -0.4594144 0.1838362 -0.29262733 -0.14993182 -0.10256791 -0.4733436 0.26459512 -0.04143127 0.13534118 0.11086483 0.16025889 0.30539986 -0.083537124 0.31578022 -0.4585346 0.15953831 0.20565999 -0.5006409 0.31556562 0.019264722 0.1813438 0.12865813 -0.19946805 -0.076249816 0.020292597 -0.27028656 0.1881147 -0.06879292 -0.11154606 -0.008752464 -0.025638815
74 -0.06152981 -0.0939514 -0.43097112 -0.19130631 0.04816474 -0.44021073 0.0071816207 0.15273279 0.023541769 0.033118635 -0.118880026 -0.034317706 -0.13068274 0.08579453 0.30900225 0.10030051 -0.25347316 0.17521398 -0.31177172 0.019247204 -0.22254589 0.004524251 0.22929431 0.028003922 -0.27921915 0.09827747 0.0065014986 0.1804401 0.10373714 0.17729731 0.36624563 -0.0043115527 -0.36706924 0.31760913 -0.3609675 0.3853722 0.2179367 0.12274294 -0.20323527 -0.10885223 0.08402251 0.00013867512 -0.3548419 -0.32582906 0.33175018 0.07852114 0.34038225 -0.20438781 -0.06133977 0.21681207 0.21264657 0.20503512 -0.151185 -0.16948861 -0.2547953 0.15835492 0.4215283 -0.028027495 0.074213296 0.1635881 -0.0047867666 0.12383222 0.25903276 -0.011949551 0.4771123 -0.2573613 0.08414 -0.023285918 0.030458368 0.0071368753 0.0444323 -0.1527056 -0.3984251 -0.1043671 -0.31130904 -0.09566937 0.15294784 -0.084654815 -0.112791896 0.21862775 0.27872333 -0.0011394173 -0.1641056 0.10493714 0.05675848 0.64690256 0.1840346 -0.28070128 0.16164744 0.11462486 0.27479586 -0.4552656 0.25448278 -0.39404932 0.41558757 -0.035900127 0.06411009 0.0022869918 0.08114014 -0.09862942 -0.36281794 0.35668063 -0.204038 0.15271038 0.15669593 -0.6572797 -0.11063312 -0.08253892 0.16093735 -0.06275478 -0.35639778 -0.3775349 -0.23437923 -0.042607106 -0.018267564 -0.17698552 0.41286182 0.3781444 0.1400621 -0.064371295 -0.29494148 0.10058137 -0.34985974 0.35841227 -0.059979785 -0.006094809 -0.019844702 0.05077087
19 0.04431365 -0.020642512 0.05384337 0.022767529 0.39857545 -0.089561194 0.26845884 -0.08673966 -0.3501088 0.023536542 0.09449895 -0.054678902 -0.36336294 0.05318532 0.4052206 -0.17686133 -0.32003504 -0.28350294 0.27760762 -0.059079092 0.37048116 0.19516852 -0.45291492 -0.09814582 -0.03965532 -0.037417844 -0.2917131 -0.037058566 0.19291627 -0.13681158 -0.16311276 0.002796781 -0.052485783 -0.058392845 -0.28766465 0.2988194 -0.08667061 -0.19326143 -0.062334083 -0.057334743 0.02234764 -0.0381402 -0.24430317 -0.5608354 0.20374766 0.058682524 -0.6475567 0.11653647 0.012548674 0.20795217 0.35669565 0.32231057 0.5738272 0.21690565 -0.38514417 0.23086639 0.13047098 -0.1738733 0.20002007 0.19279645 -0.25860724 0.017450934 0.550879 -0.24273749 0.31460464 -0.08205778 0.4358986 -0.21032043 0.2618918 -0.22440094 -0.31431094 -0.30752552 -0.36336184 -0.01194376 -0.2543662 0.053072836 0.15971279 0.25509742 0.13478817 0.16205628 -0.43911296 0.008695563 -0.36812437 0.18637621 0.34204867 0.096152686 0.090136506 -0.030338995 -0.1889525 0.2137648 -0.17188226 0.39562872 -0.15135704 -0.24524336 0.5385736 -0.26513436 -0.06719883 0.124560736 -0.07699963 0.19517602 -0.24523577 0.19799422 -0.3800152 0.23444557 0.26460573 -0.081806615 -0.011056409 0.14410052 -0.068651535 0.025165934 0.11260771 0.050516136 -0.17363545 0.38708082 -0.08508925 -0.03027552 0.025354756 -0.0819747 0.14475179 -0.30468872 -0.2330462 -0.2589613 -0.2796279 -0.25719634 -0.15458538 -0.061164346 0.09819199 -0.042166043
87 0.07055222 -0.57703567 -0.22972013 0.04564309 0.051909477 0.05445762 -0.0132351825 -0.2814095 0.20300269 0.13608114 0.4230574 0.00878301 -0.20963256 -0.1241715 0.026071979 0.19559956 0.29194546 0.0644869 -0.15361854 0.55469465 0.17963575 0.18480146 0.086258665 -0.37167335 -0.35090527 -0.31645134 0.034075968 0.16203739 0.043287482 0.10191427 -0.06289399 0.40189713 -0.32158905 0.09260351 0.14537714 -0.12837206 0.42035517 -0.58575827 0.055273853 -0.00069002877 -0.05420608 0.22301786 -0.057013307 0.19314602 0.3523764 0.03473122 -0.41431522 0.14797066 -0.25650397 0.23388803 0.15431099 0.13971886 0.040541384 -0.17255561 -0.0043262527 0.23929751 0.37116772 -0.11199356 0.043298163 -0.06774454 -0.07064315 0.111640885 0.022414645 0.22041225 0.50566596 -0.11525134 -0.36567488 0.37395763 -0.07040238 -0.1769606 -0.22393136 -0.026984371 -0.21299893 0.2820152 -0.34724525 0.08466608 -0.2995601 0.10709569 0.04378052 -0.26113248 -0.0009281335 -0.13179135 0.25999266 -0.13688986 0.4311278 0.10685096 0.22622038 -0.37456805 -0.47483116 -0.021619517 0.15452342 -0.24255012 0.33258995 -0.48474464 0.19737911 0.030338556 0.08172262 -0.12789759 -0.02854168 -0.3555806 -0.17272788 0.3053097 0.019414537 0.36672667 0.5568573 0.028876869 0.044611447 -0.046854142 0.0952899 -0.20177947 -0.2910888 -0.04940112 0.19770664 0.28502113 0.08512095 0.21308482 -0.16198023 0.33425048 -0.041271415 -0.11132968 -0.001985606 -0.09414538 0.5479583 0.13253504 -0.25040597 0.050996844 -0.19903058 -0.29430288
64 -0.032506377 -0.4449746 -0.19603167 0.2069261 -0.028600357 -0.0055939658 0.16800842 -0.21701503 -0.0732205 -0.26143822 0.21512164 0.062785655 -0.16393426 -0.38971058 0.04107206 -0.048016626 -0.39130327 0.092822805 0.09085195 -0.026961569 -0.35836872 0.4692215 -0.143589 -0.17471415 -0.107468404 -0.15473238 -0.1977187 0.27611706 0.5086336 -0.02954827 -0.06319769 0.39334342 0.36661735 0.2220274 0.33557832 -0.15433887 0.074990004 0.03510651 0.32419327 0.07992488 0.15580432 -0.40714568 -0.30851293 -0.5135746 0.5696427 0.39650542 0.020505734 -0.31962097 0.019890644 0.30822915 -0.17267814 0.05835379 -0.026545735 0.014285686 0.008818653 0.29197302 -0.01300653 0.14456719 -0.29631123 -0.2566158 0.1393455 -0.30512562 0.23340262 -0.046795856 0.21610774 0.32377845 -0.05876952 0.28873417 0.4240823 -0.27439436 0.24695443 -0.22557971 -0.3878239 -0.08835141 0.078842826 0.029466314 -0.12508868 0.03906957 -0.08003013 0.21288492 -0.015561325 0.083825395 0.021293806 0.22932641 0.19043225 0.24058942 -0.065507345 -0.067821555 -0.010603845 0.15529019 -0.3315539 -0.06627126 0.14105412 -0.0008170352 0.29396683 0.19043511 -0.13755476 0.15072334 -0.1590057 -0.19597696 -0.13663484 -0.18474674 0.081539735 -0.1643649 -0.059518185 0.1463348 -0.057688158 0.082790814 0.047350686 -0.101804994 0.21676755 -0.37638772 0.22412668 0.37580958 -0.295039 0.03951851 -0.25711352 -0.19505231 0.19100009 0.06559361 -0.25432307 0.19175689 0.00029686172 -0.29590493 -0.3540517 0.09546771 0.22761026 0.035148375
49 0.063932426 -0.4213081 0.038651638 -0.025783133 0.17374577 -0.5759362 0.024632784 0.05389666 -0.17152303 0.3197235 -0.16283867 -0.1205382 0.020936819 -0.29247472 0.048321784 -0.0026148083 -0.00545822 -0.061634056 0.11252591 -0.11405629 0.4690146 0.0941851 0.08704073 0.05465976 0.2353326 -0.16367544 -0.06536113 0.016659394 -0.012046783 0.29785222 -0.16226201 -0.16094178 0.061791 0.26774707 0.0016756218 -0.12317843 0.46957758 0.020417975 0.5710966 -0.12771241 -0.041006338 0.45745113 -0.23028193 0.084273994 0.1050665 0.34633142 -0.020257521 -0.34267178 0.21448176 0.19938149 0.53963053 0.17755848 -0.0038029596 0.008750587 -0.23632239 0.008905974 0.47204366 -0.100372866 0.25661874 0.2223895 0.17232746 0.088900045 -0.2843081 0.1085413 -0.018692892 -0.112258725 -0.025234863 -0.075133994 -0.050061505 -0.40728053 -0.005192351 -0.29496393 -0.12245528 -0.5347458 0.23000984 -0.095034555 -0.24335985 -0.14717673 -0.33033594 0.42404938 0.5214615 -0.18744299 -0.20217803 0.40780565 0.24167928 0.4736946 0.20907804 0.055953983 0.00988368 0.23136166 -0.23351568 -0.4710542 0.11851941 -0.09532525 0.048064742 -0.115979575 -0.19086666 0.31320152 0.010705832 -0.2832513 -0.06039865 0.20535626 0.046685427 0.26361248 0.17712742 0.14453453 0.066180214 0.018965144 -0.042935416 0.1807764 0.11369643 0.038556322 0.4446591 0.121485166 -0.12682997 -0.000974766 0.2783516 0.12650394 0.44649687 -0.20600593 -0.15735315 -0.23735027 0.23271564 -0.18074493 -0.27989072 -0.223986 -0.3398398 -0.43188345
44 -0.114181556 -0.13229874 -0.27153856 -0.33383992 -0.23753493 -0.24051754 0.13514994 -0.23174803 0.1686009 -0.07560699 0.019605778 -0.007888826 -0.2560257 0.110121354 -0.35468835 0.3771688 -0.33225933 0.051087197 0.06281294 0.23504385 0.16738346 -0.2128677 -0.03717376 -0.2289253 -0.12053444 -0.04936283 0.11110917 -0.059751187 0.23237678 -0.15700689 -0.41878504 0.03807808 0.19204637 0.45529678 -0.2342865 0.09894629 -0.07454958 -0.18909453 0.020132283 -0.24996583 -0.086041935 0.043922 -0.35795215 -0.028022677 0.4357152 -0.0516255 0.31837583 -0.2601385 0.03955269 0.30011362 0.12483868 -0.14546159 -0.16294268 -0.309067 -0.053111732 -0.37546253 0.48853287 -0.29646313 0.04214479 0.0604514 -0.22640626 -0.3615018 0.24293002 -0.20243677 0.19799966 -0.10038039 -0.009562419 0.037727665 0.020528404 -0.33856985 0.110865325 -0.46009484 -0.35098496 0.00015724741 0.090172574 0.14941008 0.26400906 0.11790961 -0.4578748 0.30230027 -0.14417055 -0.2783071 0.24201895 0.17079517 0.14782195 0.13597625 0.13662793 -0.3361908 -0.14263107 -0.0034066583 -0.004726937 -0.3912301 0.170354 -0.056085944 0.2104687 -0.3229193 -0.08460308 0.112302415 0.1538838 0.039497882 -0.05462526 -0.118999675 -0.16486265 0.19762897 0.025344128 -0.059882116 -0.0070097726 -0.02420037 0.062808 -0.20946003 0.1838695 -0.24641019 0.0831565 0.3611911 -0.36016142 -0.26456088 -0.026489416 0.12183663 -0.067861825 -0.018080879 -0.43447876 0.17646967 -0.24473402 0.45924646 -0.53244746 -0.072224975 -0.109042875 -0.16062325
306 0.27202377 -0.15647751 0.2861691 0.24865413 0.1658169 0.016013434 -0.3569613 -0.21039984 0.21190958 0.04280076 -0.2250883 0.038671963 -0.35453895 -0.10040507 0.008966881 -0.04624122 -0.13335074 0.27264634 0.025354944 0.025226882 -0.09677982 0.26691476 0.18007207 -0.449186 -0.18153621 -0.093987055 0.07972892 0.0367265 0.11211426 -0.032796953 0.20119388 0.14551312 0.05453482 -0.011697668 -0.36525822 0.1906107 0.27974862 -0.5337082 -0.120702915 0.0066913967 -0.24122609 -0.22051156 -0.27630618 -0.20916606 0.3910089 -0.030548312 -0.437227 -0.22196637 -0.33234945 -0.22054012 0.19578879 0.06231546 -0.0834457 -0.032508586 -0.09864462 0.17920366 0.2437999 -0.23971404 0.2973754 0.19710815 -0.031046728 0.28621182 0.14384744 0.25104722 0.15571494 0.04908981 -0.15600577 -0.15278406 0.49285117 -0.08780337 -0.02299606 -0.057229824 -0.27027333 -0.58305883 0.43402585 -0.24199015 0.24309917 0.33317152 -0.27035645 0.15236531 -0.010208907 0.11548529 -0.017526982 0.2692909 -0.39771533 0.0885477 -0.029913286 -0.22851822 -0.0729648 -0.17003946 -0.23136108 -0.27316803 0.06206228 0.37032333 0.1234609 0.06704738 -0.085197546 0.019200226 0.39398977 -0.46843398 0.15777893 -0.031578176 -0.34843197 0.035058048 -0.2293708 -0.36012742 0.12371839 -0.022912744 -0.16127366 -0.540791 -0.29805556 -0.15482657 0.2722362 0.11512928 -0.26612517 -0.029140964 0.12059569 0.1783215 0.4822204 0.16550002 -0.094689086 0.06293258 -0.38051584 0.07060219 -0.01608202 0.27607173 0.10364475 0.060152
137 0.041520745 -0.3593373 0.29563043 0.27156404 -0.11284702 -0.003182916 -0.42000553 -0.18973047 -0.07966006 0.28216326 0.3485863 -0.24988465 -0.3220952 0.34947202 0.14508778 -0.03210444 -0.15522158 -0.12144325 0.016330337 0.15493628 -0.05750228 0.0423736 -0.33791345 -0.64466256 -0.3814882 -0.16318598 -0.08301451 -0.17823607 0.07875115 0.0043203216 0.15641698 -0.117799945 -0.10860096 0.34858936 -0.23421888 -0.061261643 0.22096318 0.12394823 -0.06955449 0.087774836 -0.30810183 -0.07153775 -0.19521014 -0.14263496 0.28892782 -0.49750277 -0.62320197 0.14805783 0.30912328 -0.044084232 0.41176826 -0.24932009 -0.32612953 0.035638843 -0.23047581 0.3471776 0.3392521 -0.36219105 0.102704756 0.35248345 0.051255424 0.14469253 -0.14820552 0.028778108 0.16785567 0.090668924 -0.05798668 0.21544957 0.014891382 -0.14972368 -0.11656404 0.09976085 -0.01447362 0.08584553 0.08916615 -0.26119187 -0.16804133 0.101266466 -0.36471772 0.28714514 -0.2567549 -0.1552022 0.023162445 0.15771404 0.28071725 -0.2309531 0.11195507 0.048975606 -0.05509923 -0.3477267 0.20087163 0.023554612 -0.08433558 -0.08068422 0.35533962 -0.20613003 0.2624714 0.07053761 -0.1722284 -0.24677807 0.10724501 -0.056080624 0.2988502 0.07067852 -0.1042073 -0.27381232 -0.3827685 0.13628331 0.16291527 -0.052124392 0.20986888 -0.035144262 -0.16181657 0.3393767 0.36608323 0.1470061 0.21561556 0.0041984217 0.28914842 -0.24270578 -0.03985746 0.01839424 -0.16823204 0.107242644 -0.069562644 0.08433018 -0.4043199 -0.23836845
102 0.0106447255 -0.17327707 0.16502586 0.0997269 -0.15983318 -0.050959717 -0.17178416 0.25389218 -0.30040377 -0.047373112 0.27117383 0.12351043 -0.64478874 -0.020947533 -0.021184195 0.110297054 -0.09756659 -0.065413356 0.14693256 -0.2595029 -0.10338122 -0.09266039 0.61458176 -0.57240826 0.02090017 0.3368438 -0.107298866 0.09447269 0.007668323 0.010674851 -0.21541919 -0.112177044 -0.011453766 0.30065405 0.19806515 -0.3723096 -0.22414142 -0.33068687 -0.039794344 -0.1342548 -0.40577838 0.18478574 0.019378865 0.07936102 0.16741465 0.0437395 -0.16230187 -0.128103 -0.057075154 0.576139 0.15911114 0.50403696 -0.09652034 0.33915702 -0.17969576 0.14570972 0.18974873 -0.29597604 0.11436079 0.1116017 -0.36331752 -0.2518859 0.69734293 0.13786478 -0.16197228 -0.13922578 0.124434896 0.46750036 -0.4544835 0.16972272 0.154951 -0.31960586 -0.19371358 0.13538289 0.33622357 0.16690265 0.019194847 -0.107765175 -0.07313486 0.10652501 0.07673411 -0.39005312 0.24552295 -0.0634982 0.16803238 0.20619914 0.30176875 -0.11796513 0.10878521 -0.26203045 -0.13421163 -0.077033915 0.01461851 -0.24673569 0.33636224 0.54616994 -0.30399743 -0.014292809 0.008574916 -0.2892416 -0.33363888 0.05617949 0.07327887 0.008833819 -0.08741184 -0.4352945 0.22120479 -0.12894632 0.3075442 0.0082948925 0.10003893 0.05771455 -0.12519038 0.16519167 -0.4055491 0.14040834 0.23487422 0.26546577 0.106338754 -0.15611611 0.11711994 -0.10898759 -0.10375653 -0.21286258 -0.032526854 0.039913412 -0.18909407 -0.18420355
220 -0.0845883 -0.25472638 -0.16064608 0.14040248 0.057644043 0.25037068 -0.10734806 0.16827223 -0.0054165875 0.16719054 -0.048195057 0.31456447 -0.24289145 -0.2969018 0.046921805 0.27532703 0.078890204 0.08240426 -0.09630353 0.02840359 -0.12823252 0.34572405 -0.31585094 -0.17725533 -0.2946433 0.46832326 -0.2336053 -0.0070305606 -0.051767074 0.1650543 -0.08610738 -0.464241 -0.03874159 0.091750085 0.25968638 0.3867872 0.06096797 -0.24600835 0.3075819 0.109527245 -0.45904103 0.42643195 -0.41347784 -0.06401894 0.4368373 -0.0031956083 -0.21942675 0.025659239 -0.1263499 -0.19798529 -0.09552988 -0.017163673 -0.08237762 -0.06440468 -0.20604435 -0.12787318 0.20213294 0.16399913 -0.054855302 0.32461864 -0.038742468 0.038935427 0.3213083 -0.32964826 0.21696281 0.028216839 -0.33687872 -0.17219366 0.07967293 -0.09673812 0.032590657 -0.42259622 -0.40206832 0.41445947 -0.14114785 -0.004101086 0.08633804 0.18866086 0.3505746 0.3478393 -0.09373112 -0.11679631 0.34039223 0.6007176 0.4529956 0.39924496 -0.18083481 0.036372434 0.004169085 -0.06740101 0.012605993 0.34887362 0.30663776 0.08015121 0.045572724 0.00074588694 -0.20669012 0.073078185 -0.12182554 0.036320888 0.21060912 -0.09221505 -0.35858864 -0.016433211 0.3348135 -0.24635236 -0.026020356 0.31871113 0.0475221 -0.22263542 -0.09658382 0.076852396 0.2188276 -0.0046623563 -0.13147998 -0.013404411 -0.031175116 0.09008092 0.12530336 -0.27599773 -0.12690029 -0.4167353 -0.34668708 0.48054796 0.16657203 -0.06312167 0.010292855 0.13128807
46 0.01095253 0.09796905 0.39509976 0.29122755 0.06681726 0.30355257 0.07244534 -0.034985498 -0.49835092 -0.06166179 0.15924914 0.037855886 -0.47352126 0.06836997 0.09751028 0.013339644 -0.18794799 0.16004889 -0.22803038 -0.19525284 0.027501982 0.2664068 -0.09199379 -0.45014027 -0.1907878 -0.1380025 0.20350216 0.25805482 -0.2846126 -0.123250805 0.042349942 -0.25422278 -0.025621746 0.27770755 0.048558325 0.105963394 0.07478104 -0.27974817 -0.14496127 -0.102387734 -0.035751674 -0.29218704 -0.15679939 -0.26069826 0.42306918 -0.06509165 0.0926953 0.210197 0.08939402 0.09952473 0.31951788 -0.063480996 0.10865558 0.06985051 -0.09419 0.33065876 0.28051102 -0.12108827 -0.05556305 0.16843021 0.20719631 0.3654843 -0.019954935 0.03733876 -0.121859685 0.11120572 0.113262385 -0.1701464 -0.3086715 0.13925812 0.047150027 -0.08520795 -0.35896483 0.146945 0.27526295 -0.0027816 -0.09205966 0.28109553 -0.06660278 0.27644128 0.07619567 -0.10463502 0.007566355 0.06994298 0.43597823 -0.020444155 -0.25810367 -0.3205685 -0.1898238 -0.059244346 -0.11573268 0.1052477 0.31161335 -0.009174211 0.0123222135 0.10330467 -0.34415826 0.06314895 0.05026927 -0.085822485 -0.50118244 -0.026084553 -0.17749365 0.028938986 0.15070313 0.122317076 -0.11854896 0.33376786 0.41784734 -0.26678398 -0.16997778 -0.51969415 0.1908108 -0.004377961 -0.12579545 0.20744991 -0.304159 0.30215207 0.30894268 -0.05024995 0.13901189 0.45021752 0.30976492 0.32287335 0.020101966 0.12180654 -0.109275565 -0.092774786
110 0.067903444 -0.19338821 0.25290316 0.07943968 0.04622089 0.14069574 -0.37176552 0.12160801 -0.2369074 0.340628 0.24187426 0.17707936 -0.31606835 0.32060304 0.6579234 0.28076777 -0.008725217 0.13219815 0.13498889 0.3568865 0.2725438 -0.37525126 -0.04597601 -0.33919868 -0.3973362 -0.19699503 0.014387888 0.30030164 0.1583543 0.13850681 -0.15201439 0.2459916 -0.15192482 0.22119424 0.054440517 0.4432403 -0.23219962 -0.3763299 -0.020177357 0.3536924 0.30745593 -0.124039456 -0.4480374 -0.27819765 0.008678793 0.10857275 -0.14216428 0.008137579 -0.19371471 0.24217704 -0.014511865 0.13285947 -0.07514358 -0.021740902 -0.5056541 -0.31595773 0.20275451 -0.39708522 0.16686265 -0.10397066 -0.021711776 0.2428831 0.29541153 0.12231061 0.21605502 0.042356364 0.048761275 0.21160014 -0.05451934 -0.09646194 0.36438575 0.08055647 -0.22348799 0.05314332 0.30457246 -0.075987585 -0.35532606 -0.042599507 -0.3384734 0.51675177 -0.052741222 0.31102216 0.21169092 0.016160684 0.07933658 -0.024395103 0.14951308 -0.103343055 -0.04001127 -0.06437864 -0.13502738 0.045348886 0.22908741 0.05687683 -0.06895902 0.09887013 -0.29986897 0.1537246 -0.19908006 -0.25119105 0.23699792 -0.6239212 -0.23207332 0.2108982 -0.18470208 0.24493724 0.0072084246 -0.057771422 0.30559748 -0.012927175 -0.025463624 -0.20190363 -0.13599709 0.1158584 -0.03076461 0.21254791 0.302477 0.10915541 0.18436071 0.072669275 0.3457702 0.27346358 -0.24390961 0.11076534 0.24809873 -0.09408106 -0.085811704 -0.09760392
153 0.21725056 -0.1727514 0.042688686 0.34770417 0.04049959 0.030346936 -0.054533936 -0.28685898 0.25356278 0.22037023 0.17830966 0.13510817 -0.17364293 -0.20693891 0.19308425 0.3714785 -0.50607204 -0.17698933 0.34938747 0.16166852 -0.0533675 0.43804 -0.3958649 -0.3405719 -0.40042314 0.022500057 -0.12335409 0.14649129 0.060138516 -0.22423892 -0.472752 -0.3153547 -0.38052857 -0.07821416 -0.05095545 -0.08465165 0.13683087 -0.23735002 -0.037891686 0.061833344 -0.09047538 -0.0038175764 0.4016913 -0.06679171 0.35009316 0.25591436 0.06070316 0.017502788 0.27169284 0.12636283 -0.1072917 0.0038689752 -0.14708194 0.4015389 0.23299554 -0.5359074 0.116534784 0.016001288 -0.3928921 -0.048684526 -0.09412371 0.044967264 0.64564615 0.33933166 0.12957367 -0.24969792 -0.17914177 0.080430366 -0.053916637 -0.18685503 0.21759641 0.09160344 -0.20109865 -0.1808638 0.27521032 -0.50461286 0.17794488 0.36292106 0.031884644 0.38817173 0.4594178 -0.33380347 -0.083748326 0.3383706 0.3162376 -0.031890117 0.40786433 0.315548 0.045805432 0.45950368 0.11790086 -0.15550596 0.20213011 0.3721002 0.11946895 0.17779563 0.19140048 -0.2748847 -0.22080378 0.042379867 0.14044087 -0.070813775 -0.017087381 0.055592056 -0.3100472 0.12178723 -0.10466255 0.23957324 0.20951389 -0.17997162 -0.14371355 -0.449058 0.040664367 0.10228594 -0.0047512287 -0.23130906 -0.0395978 -0.07741403 -0.12899423 -0.3036145 0.1079525 -0.22092207 0.24822244 0.04362251 -0.15558094 -0.0065075844 -0.35286364 0.08483362
58 0.38164192 -0.15427722 0.15269724 0.26508382 0.3700756 0.022902835 -0.04278381 -0.24222833 0.110337235 0.15583195 0.40216213 -0.12761071 0.06052763 -0.13683577 0.4950709 -0.32273066 -0.30090335 -0.2705567 0.05892709 -0.114845216 0.292049 0.087609164 0.117232814 0.31595013 -0.20313211 0.4188278 0.15644872 0.54488724 -0.41083843 0.008825265 0.050484978 -0.12993148 -0.033540156 0.3057784 -0.17286548 -0.13943684 0.22227009 -0.42451423 0.4211737 -0.42597106 -0.045252226 -0.15653728 0.01096434 -0.29785094 0.49029037 0.083252825 0.0047458424 0.13339774 -0.07335514 0.105737336 -0.17449276 0.01032778 -0.1043047 -0.21344212 -0.11115254 0.12527645 0.43645543 -0.22144488 -0.21352752 -0.28582764 0.2699717 0.14490874 0.31477866 -0.26929542 0.15324281 -0.36639777 0.35991526 0.1705075 0.023476249 -0.3889544 0.5490249 -0.4175206 0.15710254 0.12427858 0.054035574 -0.19708014 -0.024654616 0.14910017 -0.20982198 0.02487264 0.02627378 0.07534489 0.0149490405 -0.01676106 -0.26038212 0.13415866 0.27647945 -0.30948052 -0.013115076 -0.25688744 -0.10104337 -0.20648971 0.1473992 0.19732815 0.596031 0.04646181 -0.2897704 0.15832768 -0.027707057 -0.45445767 -0.45253885 0.37427863 -0.5246043 -0.11506931 -0.16469868 -0.030327963 -0.09802902 0.011456405 0.022710294 0.17441839 0.19677988 0.01626153 -0.33406243 -0.06944654 -0.32184997 0.058353636 -0.010534201 -0.0005515961 -0.15337563 -0.00975763 -0.23601466 0.35981685 -0.24784051 0.31394723 -0.2522179 -0.07482722 -0.13289559 -0.2438834
76 0.31183836 -0.19310051 -0.43004292 0.5260659 -0.0960335 -0.2153793 -0.08343164 0.100345075 -0.34536806 -0.06527474 -0.03650539 -0.20623797 -0.12618873 -0.041598987 0.272258 0.03207044 0.21788241 -0.3078816 0.21666911 -0.016896121 -0.01543232 0.088197395 -0.28411493 -0.49541134 -0.14886366 0.07806612 -0.1325941 -0.16892655 -0.13559046 0.0955799 -0.21370123 -0.11308143 -0.28939563 -0.07206559 -0.111962385 0.27569762 -0.24833721 -0.61214095 -0.3024494 -0.2765001 -0.15575854 0.19804634 0.15528801 -0.06932875 0.3094139 0.06462368 -0.16927621 -0.46004283 0.086557396 0.08874495 0.030006384 0.017551307 0.33951417 -0.21381329 0.21703038 -0.13174756 0.18567973 -0.025962967 0.2068173 0.28367138 -0.008146093 0.09957824 0.3357734 -0.07674212 -0.19887483 0.31098408 -0.027347542 0.2194566 0.16580725 -0.13732657 -0.056473076 -0.17602463 -0.16187248 -0.063622534 0.14705244 -0.15228967 0.14855176 0.2909275 0.035962876 -0.084260136 0.13439709 -0.047417786 0.41851503 -0.06148926 0.20566075 0.06786505 -0.034479726 0.0032281983 0.025038617 0.039561424 0.303382 -0.35178387 0.20974572 0.2192289 0.14634599 0.1028558 -0.20313846 -0.3329646 -0.08503098 -0.37917647 -0.15434381 0.0042881602 -0.22603095 0.23423392 0.011231691 0.34878922 -0.12751557 0.14434403 0.2552891 -0.31036705 0.14143765 -0.69540024 0.22734714 -0.1272644 -0.24290855 0.21485463 -0.088801004 -0.028173592 0.37763107 0.31527486 -0.2671186 -0.14954431 0.043498628 0.15537393 -0.2678191 0.054218225 -0.12753607 0.25231
65 -0.057965234 -0.42873982 -0.023476647 0.16183616 0.2220172 -0.006654954 0.10011928 -0.083310395 0.23495224 -0.19973078 0.4525743 -0.27036503 -0.39461845 -0.05119291 0.2755827 0.29299596 0.27195942 0.09840774 -0.089521535 -0.10464116 0.3616489 0.16761833 -0.054897435 0.00074644317 -0.21717928 0.08017314 -0.24282376 0.04162536 -0.17124034 0.26471233 0.0836918 -0.18192367 0.13155122 -0.06458384 0.22951882 0.3503708 -0.39314342 -0.26068434 0.25221145 0.09008718 0.16068289 -0.14070436 0.20692016 -0.42222616 -0.08703766 0.19256659 0.17857508 0.029491326 0.21657799 0.1314936 0.11423175 0.20593163 0.018030679 0.13393354 0.2044497 -0.23329632 -0.18442331 -0.3010664 0.23106757 0.21764821 -0.049781047 0.31299987 0.1035857 0.3174041 0.10292798 -0.20821427 -0.07656985 0.42053062 0.057420295 0.1589734 -0.0945256 -0.13227752 -0.69668555 0.1310139 -0.047760934 -0.32141966 0.27201456 -0.12527688 -0.11072092 -0.119336344 -0.04663144 -0.010589381 0.1334646 0.14400002 0.1862198 -0.3544544 0.13122524 -0.23466481 0.20401543 -0.24091753 -0.2575109 -0.45472306 -0.08190934 -0.2952537 0.14619073 0.01672297 0.08285079 0.039752655 -0.078249015 -0.43479043 0.25542572 -0.13620591 -0.28603083 0.16868888 -0.015719872 -0.1989226 0.034480773 0.23238099 -0.17719 -0.4487876 0.14014883 -0.26915643 0.40010434 0.19036368 -0.65916723 0.19776139 0.06949685 0.084842995 0.5117086 -0.09819554 -0.090498544 0.3837591 -0.16748919 0.014601906 -0.16223696 -0.2492463 -0.2669952 -7.883051e-06
138 -0.46636212 -0.0041691093 -0.35360867 0.6895963 0.08021316 -0.020430416 0.21663849 -0.41324696 -0.19368121 -0.2242238 0.37904906 0.11577646 -0.3500455 0.32617357 -0.033123285 0.41489962 -0.30643788 -0.092614636 -0.09020362 -0.0065779723 -0.05138267 0.03486423 0.38030845 -0.49663875 -0.59376866 0.39755887 0.032393083 0.050315738 0.118042536 -0.28612748 0.023392104 0.24731608 0.1710017 0.0027957137 0.06086642 0.2532618 0.43367806 -0.027039299 0.13204804 -0.24553381 0.050603066 0.25662684 -0.12431749 -0.008048148 0.2773656 -0.075235404 -0.33840507 -0.034632716 0.10002973 0.027283719 0.30849227 0.14539875 -0.11139651 -0.052748833 -0.3814588 -0.43778446 0.23331438 0.031504326 -0.17091402 0.04936483 -0.051855255 0.22423118 0.16694386 0.102094226 0.048768632 -0.11274744 7.492266e-05 0.08827029 -0.50673336 -0.27053064 0.21770976 0.14659731 0.17172688 -0.13248806 0.18587011 -0.35849425 0.1470495 0.057248645 0.047496498 -0.075172156 0.1611216 -0.21705897 0.06212603 -0.15950651 0.18398626 0.20929582 -0.29480186 -0.3741404 0.31790656 0.4843652 0.05792451 0.05248606 -0.048717476 -0.12984173 0.029006096 -0.13051249 -0.24302898 0.2248179 -0.16080827 -0.06864438 0.18883426 -0.23650323 -0.264168 -0.09517699 0.087759964 0.51530147 -0.26125422 -0.04384818 0.038590785 -0.0850388 0.084658526 -0.119564965 -0.020381514 0.15884124 -0.34819278 0.049206942 0.10019704 0.15682961 0.13435952 -0.15306152 -0.091689676 0.14254908 -0.07100368 -0.035926975 -0.093747206 -0.26600412 0.055423986 -0.19749998
610 -0.006256949 0.057467643 0.34480748 0.33155468 0.282249 0.11302484 -0.36527225 0.033454243 -0.35091713 0.08216467 0.0978494 0.26043707 -0.34174994 -0.10402264 0.22553119 0.18973054 0.009530088 0.15233362 0.12305284 0.22079034 0.06454343 0.3531716 -0.1560506 -0.20149386 -0.3996707 0.18066008 -0.31144294 0.0678253 0.0026606051 0.17476532 0.19490355 0.10985889 0.1899886 0.23727527 -0.2916479 0.29249448 0.19411197 0.26342815 -0.04044242 0.16247408 -0.23257978 0.048223656 -0.11976454 0.40807256 -0.08142531 -0.19390355 -0.043939758 -0.11181541 -0.065519854 -0.23600486 -0.021654706 0.21525021 0.051522464 -0.37805098 0.24460076 -0.019643873 0.27568313 -0.2890775 -0.011009685 -0.10616413 -0.26282984 -0.061381783 0.41099155 0.51338965 0.11699476 -0.013285364 0.04384209 0.18305871 0.09708394 -0.38113305 -0.008965218 -0.21713579 -0.27386138 -0.17482716 -0.1662952 -0.012365269 0.15250707 0.08269442 -0.31592298 -0.13821067 -0.26553655 0.6076106 0.045713224 0.3231338 -0.04769818 0.00016558814 0.4000096 -0.23705165 0.26074675 0.11100993 -0.04524162 0.04844141 -0.27930653 -0.14050123 0.49799472 -0.20880409 -0.11619335 -0.057780605 -0.13723923 -0.1591766 -0.07368363 -0.025200145 -0.12825161 -0.100129314 0.36553544 0.20186797 0.34223205 0.26848194 0.42411208 0.0009150207 0.3587231 -0.36610863 -0.10145095 -0.5083307 -0.009942409 0.21774107 0.031016631 0.06795067 0.026490489 0.0018646248 0.2748331 0.07940185 0.36939526 -0.26185393 -0.34293798 -0.098233834 0.049888745 0.03833644
155 0.40482232 -0.5902201 0.043321103 0.2111571 -0.087586835 -0.10437197 -0.14105478 -0.020543765 -0.15503454 -0.041939843 9.005423e-05 -0.16511723 -0.1207127 -0.33629984 0.34492043 0.2691321 0.2109861 -0.1083424 -0.5434022 -0.14057904 0.15089299 0.23300341 0.08198358 -0.23144157 -0.4566326 0.31365633 0.028857987 -0.02258806 -0.4795481 0.1334006 0.18286899 0.06819279 0.4229536 0.29165265 -0.3456678 0.69392 0.073736764 0.19528387 -0.19543307 0.31127906 -0.001036611 -0.008459455 0.0117136445 0.1229291 -0.24755208 -0.2556889 -0.30759633 -0.09777819 -0.07317288 0.09404497 -0.04890422 0.122183815 0.22288102 -0.03486312 0.1566996 0.1699929 0.29044592 -0.43166006 0.31322962 -0.20105782 0.007306642 0.28321323 0.32233557 0.27365264 0.21899839 0.020630386 -0.03360258 -0.042344537 0.2808422 0.013782853 0.2910498 0.18795262 -0.089061774 -0.051259156 -0.15583453 0.24901426 0.15343606 0.28532815 -0.1290604 -0.020459242 -0.12679681 0.0045484565 -0.2622663 0.26331756 -0.09374706 -0.05790047 0.32281893 0.19891265 0.29933798 -0.06955053 -0.024374899 0.0002952092 0.15539809 -0.18953408 0.35866207 0.14657727 -0.59622973 0.11084419 -0.3621628 0.12050182 -0.20047925 -0.069406666 0.22875112 -0.11821162 -0.18646099 -0.3094725 0.15022925 0.067604266 0.40934652 0.20476456 -0.37446487 -0.18904422 -0.22115819 0.15287624 -0.39128664 0.07941445 -0.32639897 0.12157229 0.3069211 -0.026520856 -0.1284867 -0.19712427 0.12793587 0.19958875 -0.17677782 -0.3223902 0.24252719 -0.2905827
63 0.103741676 0.20480059 0.39039534 0.54264385 0.07105315 0.07318701 -0.44960713 0.11832458 -0.16225915 -0.17123854 0.067923784 0.21428098 -0.21490394 -0.20071171 0.30132204 -0.004687219 0.036057625 0.39734313 0.4949023 -0.15997577 0.11835451 0.88432664 -0.28719676 -0.36976236 -0.21323134 0.015758382 -0.026015043 0.16454868 -0.24100594 -0.3908505 0.2323474 0.30644768 0.010940153 0.19814828 0.1968019 0.0018983732 -0.27106848 -0.085670255 -0.052114975 0.06865211 0.012097312 0.1909937 0.1409251 -0.27227005 0.17621017 -0.08004399 0.07452833 0.17445171 0.04479198 0.19512859 0.3520577 -0.098267436 0.0072948183 -0.030735835 0.37742078 -0.06602979 0.21414778 -0.40467012 -0.067332916 0.02935999 0.00016790922 0.25387493 0.39326507 -0.3494507 0.3500554 0.0010753653 0.054888997 0.23640764 0.09717583 0.22275582 -0.19524981 -0.28956005 -0.311067 -0.3384511 0.028575597 0.25851583 -0.13133357 -0.37164176 0.20528473 0.05774573 -0.042991146 0.2603239 0.33164874 0.37407172 -0.18979302 0.088617235 0.12860096 0.155124 0.16478203 0.4152245 0.17300698 -0.15507355 0.19508988 -0.2697525 0.40585116 -0.08184434 -0.010842681 -0.051397383 0.117404245 -0.35023323 -0.17266178 -0.12239536 0.005622419 -0.051291768 0.38898596 0.23186484 0.11526176 -0.25271866 -0.11868684 -0.03786935 -0.30496818 -0.16245656 0.2891058 0.46738562 -0.23487891 0.3605108 -0.16923112 -0.114016235 0.2655939 -0.14007196 0.055304524 0.18064077 -0.042475156 0.31465283 0.081924476 0.08866447 -0.28035787 -0.1331635
167 -0.20784675 -0.43432492 0.051156633 0.21808068 -0.037926562 0.06972971 0.13131855 -0.18668202 0.039730113 0.04589729 0.10762021 0.17854458 0.18543029 -0.31649363 -0.023642862 0.7062358 -0.020431357 0.43976724 0.20219183 0.14788571 0.3809184 -0.1047965 0.28803462 0.116799556 -0.09680511 0.1784402 0.3879301 0.26678106 -0.19876875 -0.08161435 0.55248755 -0.12487553 0.053984385 0.45240784 -0.055681992 0.041921884 0.04134096 0.26196232 0.07637407 0.17576568 -0.21159227 -0.050809596 0.05786095 0.089547865 0.048920453 0.043146405 -0.45811996 -0.06693596 0.33019048 0.10836061 0.18747383 -0.07059784 0.21227223 0.16903445 -0.25546935 -0.2074223 0.7706273 -0.15735172 0.13981268 0.13085833 -0.068690374 -0.3613476 0.019109717 -0.02554753 -0.42814627 0.2870262 0.19163477 0.08318439 0.54666996 -0.12791175 -0.26573247 -0.19074959 -0.11458318 0.22451119 0.2987158 -0.24327894 0.108353145 0.40626177 -0.27754417 0.23466502 0.065066434 -0.11948494 0.120490715 0.4411512 -0.16905479 -0.21506315 -0.08492738 -0.31550184 0.20629603 -0.060167365 -0.24044529 -0.5493068 0.19070244 0.23461981 0.11716943 -0.091975406 -0.1838267 0.17676927 0.06331605 -0.13497218 -0.2780472 -0.12604317 -0.05063 0.22758797 0.034224525 0.07796161 -0.0795861 -0.019662345 0.28508794 -0.08340303 -0.013569551 -0.5767985 -0.099854 0.41960338 -0.5318989 -0.13074636 0.0081948675 0.32606074 0.36225164 -0.15085186 0.026847132 -0.09371156 -0.004464937 0.25299245 -0.08957775 0.038237777 0.26460347 0.033465654
585 -0.23280582 -0.054723013 0.08992076 0.25782865 -0.040072646 0.32209334 -0.2425254 0.19489406 -0.17590065 -0.08682915 0.24464336 0.088169836 0.060660526 -0.070571505 0.14434397 0.08867984 0.10156606 0.060087986 0.30502275 -0.13527463 0.1385958 0.30304983 -0.12911999 -0.31400618 -0.266001 0.14554991 0.25413853 0.096251294 -0.08590957 0.05225908 0.46704176 -0.057468154 0.21278651 0.5388527 0.1295372 0.4484318 0.30132812 0.25360867 -0.26386678 0.49775627 0.034879353 0.018003335 0.00088637386 0.13671823 -0.35088918 0.2328181 -0.05235136 -0.31052098 -0.14768685 -0.2498947 0.327855 0.131293 0.11518061 -0.12743726 0.14784607 -0.08666322 0.07333094 -0.55282354 -0.17618702 -0.02512482 -0.09637267 -0.3219325 0.2742525 0.030588632 0.5056274 0.0062937634 0.11938865 -0.117277764 -0.058956206 -0.21382974 0.30943477 0.12398641 -0.28350145 -0.074372895 -0.025598198 0.25261605 0.18872175 -0.042504072 -0.19733779 -0.22575216 -0.38020435 0.18782553 -0.353202 0.14755367 0.32177106 0.11231841 -0.091273114 -0.24907623 0.04950532 0.35281873 0.095961034 -0.09282613 -0.13417658 0.31151536 0.50435334 -0.26673606 -0.1375291 -0.18947391 0.055566553 -0.30531257 -0.3702246 -0.4446787 -0.057346765 0.16258729 0.37184024 -0.2167092 0.24349727 0.43000916 0.2694347 0.10624196 0.05634016 -0.2609506 -0.17570725 0.2550269 0.08125927 0.6870538 -0.13038506 0.109406635 0.3125714 -0.05744118 -0.15914339 -0.014938598 0.0069490415 -0.26074162 -0.37823534 0.013818592 -0.10615601 -0.18662393
139 -0.18168503 -0.25625503 -0.3868496 0.1993964 -0.24095058 -0.13535492 0.088967204 -0.15082088 -0.042338442 -0.08376022 0.15444717 0.32416975 0.090317525 -0.19609016 0.17812915 0.15508369 -0.085649736 0.3116271 -0.1238704 0.00046853418 -0.26666704 -0.29223636 -0.013765058 -0.12869719 0.20579757 -0.11408596 -0.13228254 -0.15493502 -0.1615687 -0.115915455 0.44258803 -0.07399223 -0.15381649 0.32368454 -0.33281577 -0.01574787 -0.07504328 -0.2880939 0.26468274 -0.21859528 0.37822354 0.039045196 -0.07836489 -0.17639714 0.3198081 0.16220863 -0.37472355 -0.06964539 -0.16124155 0.32131717 -0.19522817 0.4746088 0.2919929 -0.04709491 -0.53114957 -0.38047415 0.08537532 -0.26759186 -0.05488221 -0.07073982 -0.37633356 0.27789167 0.15571082 0.19431892 0.053489815 0.044332568 -0.010860744 -0.094266415 0.29408425 -0.3900043 0.05418109 -0.36371416 -0.35822645 0.14572182 0.079637066 -0.049628492 -0.19020185 -0.039412994 -0.31087565 0.3721651 -0.07898362 -0.23874332 -0.08276683 0.30289346 0.2291704 0.123041995 -0.07554141 -0.16032895 0.1826093 -0.07097366 -0.23148128 -0.36668822 -0.06915757 0.28469878 -0.17324477 -0.08060337 -0.22512169 -0.6363511 -0.07895867 -0.8288957 -0.04224065 -0.055046137 -0.0798468 0.20030355 -0.01869637 -0.20378153 0.06210176 0.0013409082 0.22727017 -0.13315938 -0.018955883 -0.0847559 0.15986384 0.2466227 -0.06419523 -0.25920057 0.15297465 0.11138984 0.5036688 -0.28925493 -0.08504704 -0.36470997 0.27258623 -0.14445904 -0.12548374 0.2912001 -0.0696665 -0.009858532
68 -0.30813676 0.069799274 -0.1828849 -0.14682655 -0.0016627191 0.107801564 0.118302435 0.11957005 0.26019186 -0.12531298 -0.16422528 -0.063723765 -0.05964024 -0.24825026 -0.21808863 -0.06152438 -0.11195197 0.3439297 0.07076102 0.24858746 0.28633764 0.22927886 -0.28003597 -0.10653234 -0.28220275 -0.01655015 0.029544033 0.22222206 0.100462 -0.24600974 -0.11242355 -0.49337372 0.18240762 0.20786539 -0.053402018 0.21756393 0.4044145 -0.080126554 -0.04960002 -0.28264642 -0.029891161 0.31507656 -0.22464441 -0.59959567 0.14068937 0.069066204 -0.09830308 0.3282822 -0.28447875 0.3123971 0.30465078 -0.15131833 -0.24661873 -0.10066859 -0.29244456 -0.11007636 0.050455417 0.17660728 -0.1767239 -0.19888107 -0.4010737 0.21155624 0.473305 0.20120218 0.058667578 0.21025653 0.22501305 0.11032524 -0.17228022 -0.3416634 -0.3644201 0.33669463 -0.72020525 -0.24219362 -0.036344223 0.014749239 -0.025095204 0.24105601 -0.5834542 0.04634742 -0.18234305 -0.16151974 -0.062298305 -0.14565217 -0.23088463 0.384814 0.15306427 -0.033537053 0.0948006 0.06300857 0.02619904 -0.13383587 -0.28706962 0.14423051 0.2793078 0.11488142 0.1354798 0.015356451 -0.3041386 -0.06367896 -0.17107454 -0.3150953 -0.059197538 0.19363275 -0.17212707 -0.016467448 -0.03203902 0.09976492 0.26293164 -0.12306365 -0.048356574 -0.57883537 0.13082199 -0.23409739 -0.119548835 0.21511401 0.30966502 0.16437882 0.25432214 -0.046443526 -0.5288826 -0.09044846 0.072072014 0.07119756 0.01642862 -0.15019138 -0.15113308 -0.19766091
39 0.05071873 -0.44087243 0.23083188 0.64529073 -0.27411172 -0.0912377 -0.27766013 0.025016047 -0.15936455 -0.13448106 -0.17317545 -0.04129035 -0.06531833 -0.01803142 0.50524825 0.040455185 -0.16227579 0.035006534 0.0019068698 0.21228758 0.02574667 0.12337851 -0.059856668 -0.33253697 -0.28223696 0.3036144 0.07128828 0.43955356 -0.02156326 -0.20993714 0.24059097 -0.14766873 -0.059884876 -0.05983735 0.15565883 0.42629245 0.03580691 -0.26549542 -0.05256367 -0.54547864 -0.39434648 0.0072874734 -0.1901065 -0.17137828 0.6607184 -0.1332347 0.104102366 -0.1714196 0.087415904 0.11481757 0.044803835 0.03516183 0.15722159 -0.058311254 -0.09772385 -0.40303573 0.59857446 0.18566819 -0.006869998 -0.3095613 -0.23032153 -0.16754313 0.05986053 -0.050297573 -0.0931882 -0.19899146 -0.11688239 -0.0013543448 0.27773964 0.07090544 0.12495053 0.08589593 -0.3909019 0.25981137 0.3614174 0.15342037 -0.09828128 -0.21317318 0.014270928 0.028043047 0.16417117 -0.055944853 0.23967698 0.2896002 0.030586058 0.09005565 -0.1501 -0.34095907 -0.054791257 0.23724972 -0.13696502 -0.12939064 0.028522715 -0.3951467 -0.083088145 -0.06960214 -0.30077115 -0.041311402 -0.019489668 0.034213655 -0.049540743 -0.051791854 -0.070013545 -0.25187957 -0.363116 -0.15626284 -0.15092702 0.12866576 0.37886843 0.07259222 0.27138677 -0.33407438 0.46185216 0.35830045 -0.1656285 0.11791392 0.22238554 -0.07068439 -0.29483873 0.31136933 -0.06048628 0.22017315 0.08121348 0.12418049 0.0649968 0.059024997 -0.13765125 -0.045472767
250 -0.29433838 -0.26801777 0.4118216 0.1381306 0.037765913 -0.06645019 0.011527664 -0.03901826 -0.18180554 0.3935052 -0.117853664 0.116310515 -0.2705007 -0.021956144 -0.049457964 0.5122486 -0.5024591 0.11121483 0.16737232 -0.32703915 -0.17132635 0.12141224 -0.062843785 -0.34203714 0.011175827 -0.015772592 -0.16864455 0.19058551 0.23907363 -0.12373388 0.04383413 0.0013302565 0.3445968 0.49594858 -0.30066133 0.0988985 0.34026092 -0.2027535 0.321501 0.0146141965 0.26201782 -0.15403697 0.26589212 -0.1364741 0.46784526 0.30309972 -0.27790755 0.10291811 -0.25111273 0.050758734 0.3893362 -0.3875825 -0.01084144 -0.30937162 -0.3469743 0.37161562 0.19306615 -0.03877008 0.2943908 -0.37749603 -0.15159866 0.025215035 -0.20666781 -0.06891876 0.37664992 -0.067850724 -0.055274345 0.58465487 0.073132865 -0.075060226 -0.035144627 -0.24424377 -0.21303454 -0.20632379 0.10431116 -0.2543559 -0.18397242 -0.044465438 -0.0031911067 0.17645521 0.064297445 0.059235558 0.10661329 0.010394805 0.13853289 0.07113301 0.5937716 -0.07941559 0.12124047 0.34224272 0.06275073 -0.17678429 0.2686025 0.025648832 0.00056342676 0.23876642 -0.39422145 0.14498578 -0.008130731 -0.18502085 -0.2522191 -0.010874013 -0.43887925 -0.091335334 -0.12584157 -0.01808949 -0.1887154 0.31644315 -0.42101267 -0.0835257 0.031219754 0.11187684 0.025682518 0.06722411 -0.08430235 0.047169607 -0.2141409 0.22656709 0.45155427 -0.31528282 -0.025209306 -0.4433303 0.24605052 0.066505045 0.038779315 0.28896445 -0.0037728066 0.61689395
594 -0.09233617 -0.10172052 -0.0112026185 0.37086964 0.32022366 0.0409627 0.025286444 0.02237253 -0.09010746 0.14658149 0.07217651 0.05984251 -0.46208632 -0.11975772 -0.10378964 -0.18834907 -0.042533312 0.05426342 0.04950634 -0.3541621 0.23999569 0.02655494 -0.24389857 -0.080886036 -0.7654273 0.039369512 -0.283982 -0.01604848 0.2902176 0.049526107 -0.045234013 0.13422023 -0.24448621 0.17620002 0.14636843 -0.033378627 0.048786964 0.15948613 0.028266052 0.15314023 -0.20499805 0.22669965 -0.28112465 0.2096532 -0.36186305 0.28225848 -0.12253477 0.35130006 0.10383408 -0.0056772674 0.3111331 0.3246546 -0.013174961 -0.20457767 -0.01988734 -0.15808153 0.45900542 -0.25545675 0.01980918 0.21882951 -0.045083184 0.052761167 0.38281024 -0.037191305 0.43908054 -0.15840498 0.27469012 0.18725534 0.23479943 -0.15576965 0.11443138 0.11236075 -0.5188397 0.081805825 -0.26948434 -0.036921926 0.25069442 -0.034974977 0.0049643163 0.012578784 -0.18453738 0.33396646 0.019097298 0.25311586 -0.28918266 -0.2169882 0.6055954 0.13374889 0.11816937 -0.033892196 0.06122443 0.07497235 0.07034766 -0.06358539 0.3428955 -0.19824125 -0.17378531 -0.051257845 -0.4437759 -0.25993338 -0.3580721 -0.082995616 -0.06269668 -0.0021139872 0.198528 0.1979425 -0.09577198 0.016539814 0.46327746 0.012054827 0.49954143 -0.25510234 -0.19153303 -0.2209102 -0.086287014 0.5648364 0.24813767 0.017808149 0.359896 -0.27271718 0.2189513 0.13934766 0.30560577 0.06881998 -0.19155292 0.0031842268 0.3243962 -0.10203931
182 -0.180874 -0.54706293 -0.019422058 0.1823058 -0.27777407 0.40602204 -0.029404812 -0.324666 -0.13939406 -0.31352246 -0.0086090565 0.09541468 -0.31017068 0.31625253 0.49725008 0.04644954 0.21047582 -0.08458708 0.13550644 0.12098152 0.30524006 0.27147865 0.031420037 -0.280826 -0.28997806 -0.02244901 -0.11028064 0.2417532 0.17352894 0.05987611 -0.016642112 -0.46307722 0.2189956 -0.29651058 -0.00909754 -0.019113496 -0.10607969 0.022450428 0.030682692 0.073199786 -0.07267018 0.013619115 0.50113183 -0.413421 0.28154403 -0.012272622 0.3191622 -0.4882945 -0.10541537 -0.039447956 0.2128445 -0.21739116 -0.08456421 0.03617724 0.08470742 -0.17962596 0.5607671 -0.14374028 -0.28587982 0.32035184 0.095770486 0.29369748 -0.007679541 0.07388383 0.13684389 -0.039637934 0.15504842 0.17753255 0.008968743 -0.12736996 0.19662853 -0.4470612 0.27603924 -0.052088793 -0.12950918 -0.10816663 -0.27270252 0.23578563 -0.005170275 0.069995314 -0.23623645 -0.085160226 0.14346345 -0.008987296 -0.02228516 0.0066891373 0.15591387 0.13845554 -0.15905276 0.1985564 -0.22078602 0.036426898 0.5623417 0.026839595 0.48453814 -0.051429033 -0.06463078 -0.30624536 0.061648995 -0.12472938 -0.2015125 0.19218038 -0.72894096 -0.021593489 -0.18352093 0.16151872 0.0010067024 -0.03551273 0.33835697 -0.044562165 -0.08491124 -0.13085967 0.23355322 0.23422286 -0.26401204 0.20423383 0.051476933 0.35053688 0.5855378 -0.25900108 0.21754871 -0.36903286 -0.2255084 0.04162921 0.11035214 -0.28489056 0.12657842 -0.13117608
101 0.16058648 -0.14159073 0.056548238 0.33830717 0.19800302 -0.2332701 -0.16408746 -0.30821955 0.041625906 -0.2411264 -0.023906173 -0.029751195 0.39817697 0.1416734 -0.04534722 0.081003554 -0.43154463 0.015779713 -0.10237567 0.20777543 0.34531686 0.06545472 0.06379251 -0.20301813 -0.10954607 0.0014510109 -0.018425217 0.16111557 0.03230947 0.09242206 0.055462312 0.37812018 -0.0047535626 0.104633845 0.16866416 0.06899631 0.5709952 -0.17520295 -0.27457786 0.2892065 -0.23890056 0.16606033 0.118304744 0.057569552 0.17042945 0.06419694 0.35323194 -0.02983437 -0.047433995 -0.20319068 0.11681442 0.043613806 0.15044506 -0.046288967 -0.16638589 -0.23739262 0.47060996 -0.08500849 0.3997066 0.32066336 0.37104502 -0.057986528 -0.1963409 -0.17088787 0.31760332 -0.13719414 -0.06555045 0.37335238 -0.12554482 -0.27973518 0.2681242 -0.6784261 -0.34946278 -0.5201293 0.53989935 0.32783598 -0.15704727 0.20709822 -0.020888776 0.40679568 0.05227721 -0.12649949 -0.2058562 0.10384686 0.21258245 0.18384132 -0.29521626 0.5245317 0.40439996 0.074544914 -0.103636846 -0.31896096 -0.10596922 -0.20538011 0.254395 0.12989971 0.056305494 0.4465011 -0.22997181 -0.2641147 -0.57079065 0.083093256 -0.10894217 -0.06218645 0.1998159 -0.34822235 0.079352565 0.34264544 -0.100532815 0.01143521 0.004851256 -0.47896996 -0.09368575 0.14704883 -0.021189827 -0.15789661 0.23904416 0.31124258 0.029303528 -0.16747536 -0.46463802 -0.002548761 0.05540872 -0.12737642 0.13758495 0.24527414 -0.42362443 -0.0624177
188 0.2665803 -0.054620333 -0.37683868 -0.1188669 0.04224051 0.09911867 -0.18035747 -0.07456842 -0.21499127 0.49582285 0.091456614 0.09486613 -0.30902517 -0.33908135 -0.122105904 0.34053782 -0.35797772 0.12421353 -0.19535881 0.12835044 0.006561599 0.08062548 0.17678784 -0.20804766 -0.07941415 0.16717829 -0.28934553 0.105996124 0.037649754 0.20119844 0.13219105 0.030472798 0.09569554 -0.18062313 0.0031729601 0.07208171 -0.2951573 0.19940196 -0.2395202 -0.27218288 -0.3185649 0.6923352 0.16412236 -0.32770386 0.46424234 -0.23978128 -0.054452427 0.2055424 0.07436559 0.49718824 0.34584287 -0.21533068 0.04042724 0.012486691 -0.22531615 -0.38909197 0.22152863 0.30075338 0.04081788 -0.15894285 -0.09500114 0.3171651 0.18817359 -0.045330737 0.12155185 -0.10951171 -0.09965789 0.37833893 -0.018249052 -0.43791115 0.4728302 -0.3044011 -0.42813674 -0.12327796 0.069422334 -0.17385115 -0.26047504 0.44803065 -0.45316514 -0.0424823 0.036053438 -0.12781802 0.26429456 -0.1659327 -0.13676044 -0.056062955 0.118747406 -0.19445144 0.087338805 0.29373693 0.066259295 -0.20845436 0.20179985 0.13269746 0.25897086 -0.395091 -0.053418145 -0.010479505 0.014170727 -0.3113311 0.22437006 -0.26513743 0.046982996 0.32560498 -0.13270424 0.03994552 0.026028357 0.46384156 0.4515908 0.03328007 -0.035233483 -0.031037897 -0.06368558 0.115600094 -0.39549366 0.098499864 0.10786507 -0.42615074 0.21735282 0.2786727 -0.1919912 -0.036309265 -0.11852097 -0.31289363 0.5306759 -0.3979412 0.18309495 -0.2283073
145 0.14163896 -0.11192799 -0.12359542 0.17289619 0.07041696 0.28787363 -0.047655288 -0.2141289 -0.21567376 -0.52983296 0.3210433 0.20566559 -0.3260709 -0.34825316 0.408344 0.31949928 -0.09270714 0.2078372 0.289067 -0.40325183 -0.11212621 0.14211322 -0.02597176 -0.07770533 -0.0032454415 0.2739675 -0.43339926 0.13248749 -0.15719512 -0.058406204 0.31817514 -0.5000611 -0.0060593346 -0.18045714 0.10099574 0.14680083 -0.05011047 0.14814398 -0.14047064 0.049874462 -0.0126562 -0.06316058 -0.20090666 -0.20929058 0.27856922 -0.20100956 -0.07455758 -0.44642407 0.17520073 -0.071557604 0.0045018955 -0.055878893 0.34872654 0.13111824 0.21792366 0.05612113 0.12683167 -0.098121986 -0.15247129 0.15676771 -0.20113225 0.09657846 0.06777189 0.12178609 0.42735144 -0.44153967 -0.04403141 0.17412779 -0.20503497 0.03610292 0.22649275 -0.020593686 -0.04267747 -0.102912806 -0.020170312 -0.19653077 0.036231365 -0.12281304 -0.051315445 0.24640797 -0.15751511 -0.12318131 0.09912991 0.24685691 -0.06488814 0.14539309 0.06589676 0.05965909 -0.11172362 -0.3259463 -0.08437936 -0.32337865 0.5738676 0.3925644 -0.10363166 -0.24655811 -0.21976404 -0.24397385 -0.50179416 -0.06694452 -0.16306484 -0.064317614 -0.18443029 0.07489042 0.6100235 0.050323036 0.09816759 0.061373286 0.14103882 0.3530192 0.29800746 -0.5127739 0.5146607 0.24674131 -0.2890719 0.077579334 0.18790641 0.47923556 0.3782425 -0.24154527 -0.23815192 0.046907447 -0.13921046 0.18031862 0.15436128 -0.37221232 0.109168895 0.08340171
